svm_type c_svc
kernel_type polynomial
degree 2
gamma 0.125
coef0 0
nr_class 2
total_sv 1143
rho -1.3526312396221056
label 1 -1
nr_sv 575 568
SV
16384 1:1 2:0.027027 3:0.0420168 4:-0.831858 5:-0.63733 6:-0.699395 7:-0.735352 8:-0.704036 
16384 1:1 2:-0.0135135 3:0.0420168 4:-0.778761 5:-0.635913 6:-0.7115 7:-0.701119 8:-0.694071 
16384 1:1 2:0.0810811 3:0.0588235 4:-0.778761 5:-0.640517 6:-0.710155 7:-0.705069 8:-0.674141 
16384 1:1 2:-0.0405405 3:-0.00840336 4:-0.80531 5:-0.71383 6:-0.776059 7:-0.788018 8:-0.733931 
16384 1:-1 2:-0.0135135 3:-0.0420168 4:-0.823009 5:-0.681955 6:-0.748487 7:-0.772219 8:-0.743896 
16384 1:1 2:0.0135135 3:-0.109244 4:-0.823009 5:-0.731539 6:-0.772024 7:-0.803818 8:-0.773792 
16384 1:1 2:-0.243243 3:-0.243697 4:-0.831858 5:-0.827519 6:-0.872898 7:-0.838051 8:-0.853513 
16384 2:-0.175676 3:-0.260504 4:-0.823009 5:-0.841686 6:-0.893746 7:-0.872284 8:-0.833582 
16384 1:1 2:0.351351 3:0.243697 4:-0.752212 5:-0.389764 6:-0.472764 7:-0.403555 8:-0.604385 
6436.6912160898528 1:-1 2:0.256757 3:0.411765 4:-0.725664 5:-0.139366 6:-0.287828 7:-0.191573 8:-0.325361 
16384 1:1 2:-0.243243 3:-0.210084 4:-0.840708 5:-0.769435 6:-0.821116 7:-0.774852 8:-0.823617 
16384 1:-1 2:0.0135135 3:-0.0588235 4:-0.814159 5:-0.700372 6:-0.750504 7:-0.761685 8:-0.773792 
16384 1:1 2:0.0675676 3:0.0588235 4:-0.787611 5:-0.590933 6:-0.607263 7:-0.403555 8:-0.723966 
16384 1:1 2:0.108108 3:0.0252101 4:-0.769912 5:-0.61785 6:-0.65232 7:-0.748519 8:-0.684106 
16384 1:-1 2:0.0675676 3:0.0252101 4:-0.787611 5:-0.663184 6:-0.718225 7:-0.723502 8:-0.704036 
16384 1:1 2:0.162162 3:0.176471 4:-0.80531 5:-0.558704 6:-0.591123 7:-0.579987 8:-0.65421 
16384 1:-1 2:0.22973 3:0.193277 4:-0.769912 5:-0.508057 6:-0.595158 7:-0.491771 8:-0.604385 
16384 1:-1 2:0.0405405 3:0.00840336 4:-0.769912 5:-0.635205 6:-0.704775 7:-0.701119 8:-0.674141 
16384 1:-1 2:0.0810811 3:0.0756303 4:-0.778761 5:-0.591642 6:-0.62811 7:-0.777485 8:-0.694071 
16384 1:1 2:0.22973 3:0.210084 4:-0.752212 5:-0.488578 6:-0.583726 7:-0.560237 8:-0.59442 
523.19897908444136 1:-1 2:-0.027027 3:0.142857 4:-0.814159 5:-0.743935 6:-0.818426 7:-0.743252 8:-0.743896 
16384 1:1 2:0.135135 3:0.142857 4:-0.778761 5:-0.61785 6:-0.68191 7:-0.647136 8:-0.694071 
16384 1:1 2:0.0540541 3:0.0252101 4:-0.814159 5:-0.696122 6:-0.770007 7:-0.719552 8:-0.65421 
16384 2:-0.027027 3:-0.109244 4:-0.858407 5:-0.765893 6:-0.801614 7:-0.834101 8:-0.793722 
16384 1:-1 2:0.27027 3:0.193277 4:-0.778761 5:-0.510182 6:-0.60121 7:-0.616853 8:-0.584454 
16384 1:-1 2:0.0675676 3:0.0420168 4:-0.814159 5:-0.703559 6:-0.782112 7:-0.728769 8:-0.723966 
16384 1:-1 2:-0.0135135 3:-0.00840336 4:-0.778761 5:-0.715601 6:-0.765972 7:-0.835418 8:-0.745889 
16384 1:1 2:-0.27027 3:-0.327731 4:-0.840708 5:-0.859394 6:-0.874916 7:-0.923634 8:-0.877429 
16384 1:-1 2:-0.108108 3:-0.092437 4:-0.80531 5:-0.749602 6:-0.798252 7:-0.835418 8:-0.769806 
16384 1:1 2:-0.189189 3:-0.226891 4:-0.831858 5:-0.822206 6:-0.872226 7:-0.849901 8:-0.818635 
16384 1:1 2:0.0810811 3:0.0756303 4:-0.769912 5:-0.63485 6:-0.72226 7:-0.694536 8:-0.664175 
16384 1:-1 2:0.121622 3:0.092437 4:-0.778761 5:-0.612538 6:-0.671822 7:-0.718236 8:-0.656203 
16384 1:1 2:0.0405405 3:-0.00840336 4:-0.787611 5:-0.636621 6:-0.700067 7:-0.716919 8:-0.691081 
16384 2:-0.445946 3:-0.495798 4:-0.858407 5:-0.911457 6:-0.931406 7:-0.898618 8:-0.919283 
16384 1:1 2:0.189189 3:0.176471 4:-0.769912 5:-0.489995 6:-0.570948 7:-0.656353 8:-0.584454 
10253.178060303529 1:-1 2:0.756757 3:0.747899 4:-0.690265 5:0.503099 6:0.0275723 7:0.187623 8:0.691081 
16384 1:-1 2:0.175676 3:0.159664 4:-0.752212 5:-0.424473 6:-0.383995 7:-0.483871 8:-0.61435 
16384 1:-1 2:0.0135135 3:-0.0252101 4:-0.787611 5:-0.706393 6:-0.778749 7:-0.751152 8:-0.733931 
16384 2:-0.121622 3:-0.176471 4:-0.80531 5:-0.778289 6:-0.854741 7:-0.824885 8:-0.763827 
16384 1:-1 2:-0.0810811 3:-0.092437 4:-0.814159 5:-0.732247 6:-0.786819 7:-0.794602 8:-0.763827 
16384 1:-1 3:-0.092437 4:-0.778761 5:-0.679122 6:-0.761264 7:-0.705069 8:-0.723966 
16384 2:-0.0540541 3:0.092437 4:-0.814159 5:-0.770143 6:-0.828514 7:-0.794602 8:-0.803687 
16384 1:-1 2:0.148649 3:0.0588235 4:-0.761062 5:-0.682663 6:-0.770679 7:-0.723502 8:-0.694071 
16384 2:-0.0135135 3:-0.00840336 4:-0.761062 5:-0.693288 6:-0.757229 7:-0.782752 8:-0.753861 
16384 2:-0.405405 3:-0.428571 4:-0.858407 5:-0.913582 6:-0.936113 7:-0.917051 8:-0.923269 
16384 2:-0.256757 3:-0.310924 4:-0.849558 5:-0.878165 6:-0.906523 7:-0.910467 8:-0.883408 
16384 2:-0.337838 3:-0.361345 4:-0.858407 5:-0.889145 6:-0.915938 7:-0.915734 8:-0.903338 
16384 2:-0.22973 3:-0.260504 4:-0.849558 5:-0.861519 6:-0.901143 7:-0.892034 8:-0.863478 
16384 1:-1 2:0.0405405 3:0.092437 4:-0.769912 5:-0.548787 6:-0.597848 7:-0.599737 8:-0.684106 
16384 1:-1 2:0.027027 3:0.00840336 4:-0.787611 5:-0.683018 6:-0.763282 7:-0.727452 8:-0.704036 
16384 1:1 2:0.121622 3:0.142857 4:-0.752212 5:-0.612538 6:-0.70343 7:-0.665569 8:-0.704036 
16384 1:1 2:-0.202703 3:-0.243697 4:-0.814159 5:-0.835665 6:-0.879623 7:-0.847268 8:-0.853513 
16384 1:-1 2:-0.108108 3:-0.159664 4:-0.831858 5:-0.75456 6:-0.805649 7:-0.765635 8:-0.803687 
16384 1:-1 2:0.0675676 3:0.0252101 4:-0.769912 5:-0.66708 6:-0.756557 7:-0.701119 8:-0.704036 
16384 1:1 2:0.0135135 3:-0.00840336 4:-0.823009 5:-0.741101 6:-0.804304 7:-0.734036 8:-0.763827 
16384 1:1 2:-0.162162 3:-0.142857 4:-0.823009 5:-0.799894 6:-0.858104 7:-0.803818 8:-0.803687 
16384 1:1 2:0.337838 3:0.361345 4:-0.752212 5:-0.326014 6:-0.400807 7:-0.457538 8:-0.514699 
303.38067525161051 1:1 2:0.810811 3:0.781513 4:-0.619469 5:0.768727 6:0.244788 7:0.241606 8:0.392128 
16384 1:-1 2:0.364865 3:0.344538 4:-0.787611 5:-0.241013 6:-0.357095 7:-0.281106 8:-0.474838 
16384 1:-1 2:0.378378 3:0.327731 4:-0.716814 5:-0.238534 6:-0.329523 7:-0.24424 8:-0.504733 
16384 1:1 2:0.108108 3:0.159664 4:-0.761062 5:-0.531787 6:-0.580363 7:-0.640553 8:-0.604385 
10384.305731374876 1:1 2:0.27027 3:0.243697 4:-0.761062 5:-0.403223 6:-0.499664 7:-0.448321 8:-0.534629 
16384 1:-1 2:0.027027 3:0.0588235 4:-0.814159 5:-0.652559 6:-0.710827 7:-0.673469 8:-0.733931 
16384 1:1 2:0.256757 3:0.226891 4:-0.725664 5:-0.478307 6:-0.528581 7:-0.601053 8:-0.574489 
16384 1:1 2:0.0405405 3:0.092437 4:-0.761062 5:-0.659996 6:-0.722932 7:-0.678736 8:-0.714001 
16384 2:0.0540541 3:0.0756303 4:-0.787611 5:-0.667788 6:-0.702757 7:-0.687953 8:-0.723966 
16384 2:-0.0810811 3:-0.092437 4:-0.823009 5:-0.773685 6:-0.794889 7:-0.844635 8:-0.793722 
16384 1:1 2:0.0810811 3:0.0756303 4:-0.778761 5:-0.581371 6:-0.628783 7:-0.698486 8:-0.644245 
16384 1:-1 2:0.0675676 3:0.0756303 4:-0.778761 5:-0.603683 6:-0.662408 7:-0.640553 8:-0.644245 
16384 2:-0.216216 3:-0.193277 4:-0.831858 5:-0.824332 6:-0.856759 7:-0.857801 8:-0.843548 
16384 2:-0.148649 3:-0.142857 4:-0.823009 5:-0.787498 6:-0.845326 7:-0.832785 8:-0.773792 
16384 1:-1 2:0.148649 3:0.142857 4:-0.752212 5:-0.494599 6:-0.575656 7:-0.537854 8:-0.524664 
16384 1:-1 2:0.108108 3:0.0420168 4:-0.787611 5:-0.584558 6:-0.638198 7:-0.656353 8:-0.65421 
16384 1:-1 2:0.189189 3:0.210084 4:-0.752212 5:-0.510182 6:-0.582381 7:-0.601053 8:-0.604385 
16384 1:-1 2:0.364865 3:0.361345 4:-0.787611 5:-0.29768 6:-0.379287 7:-0.373272 8:-0.444943 
16384 2:0.121622 3:0.092437 4:-0.787611 5:-0.626704 6:-0.710155 7:-0.635286 8:-0.694071 
16384 2:-0.0135135 3:-0.0252101 4:-0.823009 5:-0.742164 6:-0.837256 7:-0.763002 8:-0.763827 
16384 2:-0.162162 3:-0.159664 4:-0.831858 5:-0.822915 6:-0.878278 7:-0.856485 8:-0.823617 
16384 1:1 2:-0.148649 3:-0.176471 4:-0.840708 5:-0.785019 6:-0.809011 7:-0.831468 8:-0.833582 
16384 2:-0.22973 3:-0.260504 4:-0.80531 5:-0.836019 6:-0.873571 7:-0.863068 8:-0.833582 
16384 2:-0.135135 3:-0.193277 4:-0.823009 5:-0.809102 6:-0.821116 7:-0.915734 8:-0.833582 
16384 1:-1 2:-0.0945946 3:-0.092437 4:-0.814159 5:-0.743935 6:-0.787492 7:-0.798552 8:-0.763827 
16384 2:-0.22973 3:-0.243697 4:-0.814159 5:-0.860457 6:-0.907868 7:-0.882818 8:-0.843548 
16384 2:-0.0810811 3:-0.142857 4:-0.80531 5:-0.791394 6:-0.835911 7:-0.851218 8:-0.804684 
16384 1:1 2:-0.175676 3:-0.226891 4:-0.823009 5:-0.812644 6:-0.846671 7:-0.840685 8:-0.853513 
16384 1:-1 2:0.189189 3:0.176471 4:-0.787611 5:-0.543829 6:-0.61197 7:-0.631336 8:-0.650224 
16384 2:-0.0405405 3:-0.0420168 4:-0.787611 5:-0.748185 6:-0.798252 7:-0.831468 8:-0.794718 
16384 1:-1 2:0.202703 3:0.176471 4:-0.787611 5:-0.557287 6:-0.645595 7:-0.628703 8:-0.642252 
16384 1:-1 2:0.0540541 3:-0.00840336 4:-0.79646 5:-0.703205 6:-0.790854 7:-0.761685 8:-0.734928 
16384 1:-1 2:0.027027 3:-0.00840336 4:-0.752212 5:-0.634142 6:-0.704102 7:-0.668203 8:-0.733931 
16384 1:1 2:-0.121622 3:-0.210084 4:-0.79646 5:-0.803435 6:-0.851379 7:-0.849901 8:-0.853513 
16384 2:-0.216216 3:-0.310924 4:-0.79646 5:-0.846998 6:-0.875588 7:-0.884134 8:-0.863478 
16384 1:1 2:-0.162162 3:-0.176471 4:-0.831858 5:-0.831415 6:-0.882313 7:-0.845951 8:-0.833582 
16384 2:0.22973 3:0.226891 4:-0.672566 5:-0.468744 6:-0.599193 7:-0.59052 8:-0.59442 
16384 1:-1 2:0.0405405 3:0.00840336 4:-0.769912 5:-0.676997 6:-0.743107 7:-0.723502 8:-0.743896 
16384 2:0.0675676 3:0.0588235 4:-0.787611 5:-0.668142 6:-0.753194 7:-0.723502 8:-0.694071 
16384 1:-1 2:-0.027027 3:-0.0588235 4:-0.80531 5:-0.732247 6:-0.773369 7:-0.774852 8:-0.783757 
16384 2:0.0675676 3:0.0588235 4:-0.752212 5:-0.648309 6:-0.71957 7:-0.678736 8:-0.714001 
16384 2:0.0540541 3:0.092437 4:-0.769912 5:-0.67983 6:-0.746469 7:-0.790652 8:-0.694071 
16384 1:-1 2:-0.189189 3:-0.210084 4:-0.79646 5:-0.809811 6:-0.876261 7:-0.827518 8:-0.826607 
16384 1:-1 2:-0.0135135 3:0.00840336 4:-0.79646 5:-0.707455 6:-0.788164 7:-0.757735 8:-0.741903 
16384 1:1 2:-0.0675676 3:-0.092437 4:-0.79646 5:-0.79706 6:-0.866846 7:-0.851218 8:-0.776781 
16384 1:-1 2:-0.175676 3:-0.210084 4:-0.814159 5:-0.819373 6:-0.868191 7:-0.867018 8:-0.833582 
16384 1:1 2:-0.337838 3:-0.361345 4:-0.867257 5:-0.89127 6:-0.922663 7:-0.901251 8:-0.905331 
16384 2:0.297297 3:0.243697 4:-0.681416 5:-0.381619 6:-0.504371 7:-0.473338 8:-0.494768 
16384 2:0.310811 3:0.294118 4:-0.707965 5:-0.434744 6:-0.550773 7:-0.544437 8:-0.504733 
16384 2:0.0945946 3:0.0588235 4:-0.787611 5:-0.63733 6:-0.72226 7:-0.656353 8:-0.694071 
16384 2:0.108108 3:0.12605 4:-0.778761 5:-0.582787 6:-0.615333 7:-0.63002 8:-0.763827 
16384 2:0.148649 3:0.109244 4:-0.734513 5:-0.557641 6:-0.650975 7:-0.56287 8:-0.684106 
12394.586700266978 2:0.202703 3:0.159664 4:-0.743363 5:-0.533912 6:-0.642233 7:-0.723502 8:-0.564524 
16384 2:0.189189 3:0.159664 4:-0.787611 5:-0.53462 6:-0.637525 7:-0.529954 8:-0.664175 
16384 1:-1 2:0.0810811 3:-0.00840336 4:-0.79646 5:-0.681247 6:-0.770679 7:-0.759052 8:-0.694071 
16384 1:1 2:-0.256757 3:-0.327731 4:-0.884956 5:-0.874624 6:-0.906523 7:-0.899934 8:-0.883408 
16384 2:0.108108 3:0.00840336 4:-0.769912 5:-0.589871 6:-0.671822 7:-0.65372 8:-0.668161 
16384 2:-0.027027 3:-0.0756303 4:-0.778761 5:-0.71383 6:-0.774714 7:-0.723502 8:-0.811659 
16384 1:-1 2:-0.0945946 3:-0.109244 4:-0.79646 5:-0.727289 6:-0.779422 7:-0.736669 8:-0.806677 
16384 2:0.0135135 3:-0.00840336 4:-0.752212 5:-0.665663 6:-0.718897 7:-0.714286 8:-0.748879 
16384 2:0.0135135 3:-0.0252101 4:-0.761062 5:-0.687622 6:-0.735709 7:-0.770902 8:-0.768809 
16384 2:0.310811 3:0.243697 4:-0.752212 5:-0.351514 6:-0.462677 7:-0.481238 8:-0.484803 
16384 2:0.364865 3:0.310924 4:-0.734513 5:-0.373473 6:-0.486214 7:-0.450955 8:-0.494768 
16384 2:0.283784 3:0.243697 4:-0.734513 5:-0.430494 6:-0.495629 7:-0.55102 8:-0.514699 
16384 2:0.0405405 3:0.00840336 4:-0.752212 5:-0.651851 6:-0.710827 7:-0.651086 8:-0.773792 
16384 1:-1 2:-0.0945946 3:-0.159664 4:-0.823009 5:-0.744289 6:-0.767989 7:-0.830151 8:-0.783757 
16384 2:0.135135 3:0.12605 4:-0.778761 5:-0.530016 6:-0.619368 7:-0.57472 8:-0.604385 
16384 2:0.202703 3:0.243697 4:-0.699115 5:-0.519391 6:-0.624748 7:-0.54312 8:-0.61435 
6636.5869592729214 1:1 2:0.0135135 3:-0.0588235 4:-0.752212 5:-0.673809 6:-0.780767 7:-0.801185 8:-0.704036 
16384 1:-1 2:-0.108108 3:-0.142857 4:-0.787611 5:-0.782185 6:-0.815736 7:-0.848585 8:-0.813652 
16384 1:-1 2:-0.202703 3:-0.210084 4:-0.79646 5:-0.824332 6:-0.852051 7:-0.851218 8:-0.853513 
16384 2:0.216216 3:0.193277 4:-0.690265 5:-0.382327 6:-0.519166 7:-0.456221 8:-0.59442 
16384 2:0.243243 3:0.226891 4:-0.743363 5:-0.345493 6:-0.466039 7:-0.483871 8:-0.504733 
16384 1:-1 2:-0.162162 3:-0.12605 4:-0.80531 5:-0.798831 6:-0.836584 7:-0.834101 8:-0.836572 
16384 1:-1 2:-0.148649 3:-0.176471 4:-0.823009 5:-0.813706 6:-0.856759 7:-0.843318 8:-0.830593 
16384 2:0.0675676 3:-0.0252101 4:-0.79646 5:-0.655392 6:-0.731675 7:-0.716919 8:-0.672147 
16384 2:-0.0540541 3:-0.0252101 4:-0.778761 5:-0.700372 6:-0.786147 7:-0.791968 8:-0.696064 
16384 1:1 2:-0.27027 3:-0.277311 4:-0.840708 5:-0.86329 6:-0.896436 7:-0.881501 8:-0.885401 
16384 2:0.108108 3:0.0588235 4:-0.769912 5:-0.676997 6:-0.757902 7:-0.703752 8:-0.731938 
16384 1:1 2:-0.202703 3:-0.226891 4:-0.823009 5:-0.839915 6:-0.910558 7:-0.823568 8:-0.841555 
16384 1:1 2:-0.256757 3:-0.294118 4:-0.840708 5:-0.875686 6:-0.924008 7:-0.890718 8:-0.867464 
16384 1:1 2:-0.324324 3:-0.378151 4:-0.867257 5:-0.891624 6:-0.937458 7:-0.907834 8:-0.883408 
16384 2:0.135135 3:0.0588235 4:-0.778761 5:-0.663184 6:-0.752522 7:-0.815668 8:-0.666168 
16384 2:0.0135135 3:-0.00840336 4:-0.743363 5:-0.629538 6:-0.720915 7:-0.737986 8:-0.673144 
16384 1:1 2:-0.364865 3:-0.428571 4:-0.867257 5:-0.909687 6:-0.940148 7:-0.913101 8:-0.915296 
16384 1:1 2:-0.27027 3:-0.327731 4:-0.858407 5:-0.881707 6:-0.920646 7:-0.889401 8:-0.895366 
16384 1:-1 2:0.148649 3:0.109244 4:-0.79646 5:-0.520808 6:-0.605245 7:-0.63792 8:-0.61435 
16384 2:0.0540541 3:0.0252101 4:-0.814159 5:-0.648663 6:-0.713517 7:-0.695853 8:-0.723966 
16384 1:-1 2:-0.0540541 3:-0.0588235 4:-0.831858 5:-0.773331 6:-0.839274 7:-0.840685 8:-0.753861 
1231.9881939374536 2:0.22973 3:0.210084 4:-0.743363 5:-0.332743 6:-0.484196 7:-0.514154 8:-0.474838 
16384 1:1 2:-0.283784 3:-0.294118 4:-0.849558 5:-0.871436 6:-0.897781 7:-0.880184 8:-0.873443 
16384 2:0.0810811 3:0.0420168 4:-0.79646 5:-0.65433 6:-0.701412 7:-0.676103 8:-0.736921 
16384 1:1 2:0.0405405 3:0.0420168 4:-0.778761 5:-0.670622 6:-0.746469 7:-0.752469 8:-0.688092 
16384 2:0.0675676 3:0.0252101 4:-0.769912 5:-0.631309 6:-0.735037 7:-0.720869 8:-0.674141 
16384 1:1 2:-0.22973 3:-0.193277 4:-0.823009 5:-0.852311 6:-0.912576 7:-0.863068 8:-0.853513 
16384 2:-0.0135135 3:-0.0252101 4:-0.787611 5:-0.656455 6:-0.737054 7:-0.716919 8:-0.684106 
16384 1:1 2:0.0135135 3:-0.0420168 4:-0.769912 5:-0.738268 6:-0.785474 7:-0.791968 8:-0.793722 
16384 3:-0.0756303 4:-0.787611 5:-0.755622 6:-0.839946 7:-0.780118 8:-0.793722 
16384 2:0.0405405 3:-0.00840336 4:-0.787611 5:-0.655392 6:-0.741762 7:-0.724819 8:-0.694071 
2425.6361807692733 1:-1 2:0.0810811 3:0.0252101 4:-0.778761 5:-0.684788 6:-0.773369 7:-0.788018 8:-0.723966 
16384 2:0.0675676 3:-0.00840336 4:-0.769912 5:-0.67133 6:-0.753194 7:-0.740619 8:-0.714001 
16384 1:-1 2:-0.202703 3:-0.243697 4:-0.80531 5:-0.838144 6:-0.874243 7:-0.878868 8:-0.853513 
16384 1:-1 2:-0.0810811 3:-0.0420168 4:-0.769912 5:-0.741101 6:-0.804976 7:-0.768269 8:-0.763827 
16384 1:-1 2:-0.175676 3:-0.159664 4:-0.814159 5:-0.802373 6:-0.860794 7:-0.839368 8:-0.823617 
16384 1:-1 2:-0.135135 3:-0.193277 4:-0.831858 5:-0.842394 6:-0.896436 7:-0.859118 8:-0.843548 
16384 1:-1 2:-0.0405405 3:-0.092437 4:-0.79646 5:-0.727643 6:-0.802959 7:-0.720869 8:-0.783757 
16384 1:1 2:-0.175676 3:-0.210084 4:-0.787611 5:-0.800956 6:-0.843309 7:-0.828835 8:-0.833582 
16384 1:1 2:-0.162162 3:-0.226891 4:-0.814159 5:-0.795644 6:-0.837929 7:-0.820935 8:-0.8286 
16384 1:-1 3:-0.0756303 4:-0.814159 5:-0.680893 6:-0.759247 7:-0.730086 8:-0.757848 
16384 1:1 2:-0.135135 3:-0.193277 4:-0.79646 5:-0.777581 6:-0.839274 7:-0.844635 8:-0.78276 
16384 1:1 2:-0.121622 3:-0.176471 4:-0.778761 5:-0.706039 6:-0.744452 7:-0.764319 8:-0.768809 
16384 1:1 2:-0.351351 3:-0.344538 4:-0.840708 5:-0.857624 6:-0.918628 7:-0.903884 8:-0.844544 
16384 1:-1 2:-0.27027 3:-0.310924 4:-0.840708 5:-0.85479 6:-0.897108 7:-0.886768 8:-0.850523 
16384 1:1 2:-0.22973 3:-0.193277 4:-0.769912 5:-0.80556 6:-0.880968 7:-0.851218 8:-0.802691 
16384 1:1 2:-0.189189 3:-0.176471 4:-0.823009 5:-0.826811 6:-0.861466 7:-0.876234 8:-0.837569 
16384 1:1 2:-0.256757 3:-0.327731 4:-0.858407 5:-0.865769 6:-0.893746 7:-0.899934 8:-0.877429 
16384 1:1 2:0.0540541 3:0.0252101 4:-0.858407 5:-0.655746 6:-0.744452 7:-0.672153 8:-0.694071 
16384 1:1 2:-0.121622 3:-0.159664 4:-0.849558 5:-0.791039 6:-0.856086 7:-0.815668 8:-0.803687 
16384 1:-1 2:0.0945946 3:0.0756303 4:-0.814159 5:-0.629538 6:-0.707465 7:-0.686636 8:-0.694071 
16384 1:1 2:0.27027 3:0.226891 4:-0.769912 5:-0.378785 6:-0.498319 7:-0.55497 8:-0.544594 
16384 1:1 3:-0.0252101 4:-0.840708 5:-0.732601 6:-0.809011 7:-0.806452 8:-0.753861 
16384 1:1 2:0.108108 3:0.00840336 4:-0.787611 5:-0.613954 6:-0.712172 7:-0.576037 8:-0.723966 
16384 1:1 2:-0.27027 3:-0.277311 4:-0.831858 5:-0.861874 6:-0.911903 7:-0.869651 8:-0.863478 
16384 1:1 2:-0.0135135 3:-0.0588235 4:-0.80531 5:-0.72233 6:-0.790182 7:-0.748519 8:-0.759841 
16384 1:1 2:0.0135135 3:-0.0588235 4:-0.778761 5:-0.754206 6:-0.841291 7:-0.723502 8:-0.773792 
16384 1:1 2:0.189189 3:0.092437 4:-0.761062 5:-0.532849 6:-0.61466 7:-0.449638 8:-0.694071 
16384 2:-0.0135135 3:0.0420168 4:-0.79646 5:-0.646538 6:-0.67384 7:-0.780118 8:-0.711011 
16384 2:0.0810811 3:0.0420168 4:-0.778761 5:-0.614308 6:-0.693342 7:-0.689269 8:-0.660189 
16384 2:0.108108 3:0.00840336 4:-0.814159 5:-0.648663 6:-0.70881 7:-0.748519 8:-0.699053 
16384 1:1 2:0.148649 3:0.159664 4:-0.778761 5:-0.578183 6:-0.638198 7:-0.665569 8:-0.672147 
16384 1:1 2:0.256757 3:0.176471 4:-0.778761 5:-0.370285 6:-0.353732 7:-0.497038 8:-0.600399 
16384 1:-1 2:0.256757 3:0.226891 4:-0.752212 5:-0.431202 6:-0.505044 7:-0.54707 8:-0.584454 
16384 1:-1 2:0.27027 3:0.294118 4:-0.761062 5:-0.350806 6:-0.424344 7:-0.470704 8:-0.529646 
16384 1:1 2:0.297297 3:0.277311 4:-0.743363 5:-0.315389 6:-0.330868 7:-0.55892 8:-0.527653 
16384 1:1 2:0.337838 3:0.277311 4:-0.769912 5:-0.467682 6:-0.531944 7:-0.539171 8:-0.616343 
16384 1:1 2:0.0810811 3:0.0588235 4:-0.778761 5:-0.621038 6:-0.702757 7:-0.681369 8:-0.704036 
16384 1:-1 2:0.162162 3:0.12605 4:-0.769912 5:-0.523995 6:-0.575656 7:-0.63002 8:-0.647235 
16384 1:1 2:0.162162 3:0.193277 4:-0.778761 5:-0.546662 6:-0.612643 7:-0.651086 8:-0.694071 
16384 1:1 2:0.216216 3:0.159664 4:-0.752212 5:-0.482557 6:-0.552118 7:-0.58657 8:-0.664175 
16384 1:-1 2:0.283784 3:0.310924 4:-0.725664 5:-0.299805 6:-0.26967 7:-0.532587 8:-0.56851 
16384 1:1 2:0.337838 3:0.327731 4:-0.725664 5:-0.15495 6:-0.244788 7:-0.325872 8:-0.415047 
16384 1:1 2:0.364865 3:0.462185 4:-0.769912 5:-0.198512 6:-0.213181 7:-0.325872 8:-0.530643 
16384 1:-1 2:0.405405 3:0.327731 4:-0.734513 5:-0.212325 6:-0.212508 7:-0.420671 8:-0.504733 
16384 1:1 2:0.405405 3:0.344538 4:-0.734513 5:-0.261909 6:-0.30464 7:-0.420671 8:-0.464873 
16384 1:-1 2:0.567568 3:0.361345 4:-0.716814 5:0.0568443 6:-0.0739744 7:-0.129691 8:-0.639263 
16384 2:0.148649 3:0.0756303 4:-0.787611 5:-0.617496 6:-0.712172 7:-0.695853 8:-0.664175 
16384 2:0.175676 3:0.159664 4:-0.778761 5:-0.606517 6:-0.64963 7:-0.686636 8:-0.699053 
16384 1:1 2:0.202703 3:0.159664 4:-0.743363 5:-0.45139 6:-0.527236 7:-0.515471 8:-0.63428 
16384 2:0.216216 3:0.159664 4:-0.752212 5:-0.575704 6:-0.648285 7:-0.662936 8:-0.63727 
16384 1:1 2:0.216216 3:0.176471 4:-0.787611 5:-0.466265 6:-0.496301 7:-0.591837 8:-0.602392 
16384 2:0.243243 3:0.12605 4:-0.778761 5:-0.577121 6:-0.65232 7:-0.608953 8:-0.666168 
16384 2:0.256757 3:0.226891 4:-0.752212 5:-0.529308 6:-0.581036 7:-0.63792 8:-0.625311 
16384 1:1 2:0.27027 3:0.193277 4:-0.787611 5:-0.439702 6:-0.417619 7:-0.631336 8:-0.624315 
16384 1:1 2:0.27027 3:0.210084 4:-0.752212 5:-0.420577 6:-0.380632 7:-0.666886 8:-0.56851 
16384 1:1 2:0.283784 3:0.243697 4:-0.734513 5:-0.412431 6:-0.448554 7:-0.536537 8:-0.5715 
16384 1:1 2:0.310811 3:0.260504 4:-0.743363 5:-0.364264 6:-0.37727 7:-0.533904 8:-0.536622 
16384 1:1 2:0.324324 3:0.344538 4:-0.734513 5:-0.321764 6:-0.387357 7:-0.370639 8:-0.544594 
16384 1:1 2:0.337838 3:0.361345 4:-0.734513 5:-0.266513 6:-0.273033 7:-0.465438 8:-0.504733 
16384 1:-1 2:0.351351 3:0.327731 4:-0.716814 5:-0.244909 6:-0.253531 7:-0.437788 8:-0.489786 
16384 1:1 2:0.351351 3:0.277311 4:-0.752212 5:-0.402515 6:-0.462004 7:-0.498354 8:-0.560538 
16384 1:1 2:0.351351 3:0.310924 4:-0.699115 5:-0.277138 6:-0.262946 7:-0.428571 8:-0.54858 
16384 1:1 2:0.351351 3:0.310924 4:-0.743363 5:-0.401452 6:-0.443174 7:-0.489138 8:-0.564524 
16384 1:1 2:0.364865 3:0.310924 4:-0.761062 5:-0.424827 6:-0.493611 7:-0.497038 8:-0.564524 
16384 1:1 2:0.364865 3:0.327731 4:-0.752212 5:-0.320347 6:-0.34768 7:-0.523371 8:-0.498754 
16384 1:1 2:0.378378 3:0.361345 4:-0.743363 5:-0.340181 6:-0.35844 7:-0.520737 8:-0.534629 
16384 1:1 2:0.418919 3:0.378151 4:-0.725664 5:-0.281388 6:-0.31271 7:-0.352205 8:-0.554559 
16384 1:1 2:0.432432 3:0.411765 4:-0.752212 5:-0.209846 6:-0.254876 7:-0.324556 8:-0.456901 
16384 1:-1 2:0.513514 3:0.478992 4:-0.973451 5:-0.182221 6:-0.313383 7:-0.190257 8:-0.428002 
12.048719063531063 2:0.594595 3:0.495798 4:-0.699115 5:-0.0823446 6:-0.189644 7:-0.235023 8:-0.286497 
16384 2:-0.162162 3:-0.210084 4:-0.840708 5:-0.816186 6:-0.852051 7:-0.844635 8:-0.854509 
16384 2:-0.0135135 3:-0.0420168 4:-0.787611 5:-0.691163 6:-0.71688 7:-0.782752 8:-0.763827 
16384 2:0.0135135 3:-0.0756303 4:-0.814159 5:-0.68408 6:-0.721587 7:-0.766952 8:-0.763827 
16384 2:0.0405405 3:-0.00840336 4:-0.814159 5:-0.738976 6:-0.789509 7:-0.798552 8:-0.775785 
16384 2:0.0540541 3:-0.0420168 4:-0.80531 5:-0.756331 6:-0.809684 7:-0.809085 8:-0.777778 
16384 2:0.0945946 3:0.0588235 4:-0.778761 5:-0.616434 6:-0.673167 7:-0.735352 8:-0.674141 
16384 2:0.148649 3:0.092437 4:-0.761062 5:-0.580662 6:-0.605245 7:-0.727452 8:-0.691081 
4052.3519904918694 1:1 2:0.148649 3:0.226891 4:-0.761062 5:-0.522224 6:-0.595158 7:-0.628703 8:-0.59143 
16384 2:0.148649 3:0.0756303 4:-0.743363 5:-0.590933 6:-0.679892 7:-0.639236 8:-0.63428 
16384 2:0.148649 3:0.193277 4:-0.752212 5:-0.532849 6:-0.653665 7:-0.573404 8:-0.612357 
16384 2:0.148649 3:0.142857 4:-0.752212 5:-0.561183 6:-0.607935 7:-0.684003 8:-0.61435 
16384 2:0.189189 3:0.226891 4:-0.761062 5:-0.497786 6:-0.548083 7:-0.62212 8:-0.59442 
16384 2:0.189189 3:0.159664 4:-0.761062 5:-0.508057 6:-0.570948 7:-0.670836 8:-0.65421 
16384 2:0.202703 3:0.159664 4:-0.769912 5:-0.588808 6:-0.687962 7:-0.64187 8:-0.644245 
16384 2:0.202703 3:0.142857 4:-0.778761 5:-0.531787 6:-0.597176 7:-0.656353 8:-0.623318 
16384 2:0.216216 3:0.159664 4:-0.778761 5:-0.508057 6:-0.505044 7:-0.636603 8:-0.676134 
16384 1:1 2:0.216216 3:0.226891 4:-0.725664 5:-0.404994 6:-0.425689 7:-0.628703 8:-0.595416 
16384 2:0.22973 3:0.210084 4:-0.769912 5:-0.509828 6:-0.476126 7:-0.709019 8:-0.670154 
16384 2:0.22973 3:0.226891 4:-0.725664 5:-0.427661 6:-0.365837 7:-0.709019 8:-0.620329 
16384 2:0.22973 3:0.210084 4:-0.80531 5:-0.594475 6:-0.661735 7:-0.676103 8:-0.626308 
16384 2:0.22973 3:0.243697 4:-0.769912 5:-0.457765 6:-0.437794 7:-0.684003 8:-0.584454 
16384 2:0.243243 3:0.159664 4:-0.761062 5:-0.574641 6:-0.61197 7:-0.682686 8:-0.696064 
16384 1:-1 2:0.243243 3:0.193277 4:-0.769912 5:-0.495307 6:-0.550773 7:-0.62212 8:-0.589437 
16384 1:1 2:0.243243 3:0.277311 4:-0.734513 5:-0.493536 6:-0.533961 7:-0.620803 8:-0.616343 
16384 1:-1 2:0.256757 3:0.226891 4:-0.743363 5:-0.388348 6:-0.420982 7:-0.572087 8:-0.569507 
16384 2:0.256757 3:0.226891 4:-0.752212 5:-0.486807 6:-0.570276 7:-0.620803 8:-0.546587 
16384 2:0.283784 3:0.260504 4:-0.743363 5:-0.442182 6:-0.497646 7:-0.55102 8:-0.558545 
16384 1:-1 2:0.283784 3:0.176471 4:-0.778761 5:-0.540287 6:-0.602555 7:-0.640553 8:-0.604385 
16384 1:1 2:0.283784 3:0.260504 4:-0.734513 5:-0.381973 6:-0.445864 7:-0.499671 8:-0.508719 
16384 2:0.283784 3:0.277311 4:-0.752212 5:-0.467682 6:-0.559516 7:-0.591837 8:-0.539611 
16384 2:0.283784 3:0.243697 4:-0.761062 5:-0.483974 6:-0.554136 7:-0.59447 8:-0.574489 
16384 2:0.297297 3:0.260504 4:-0.752212 5:-0.458474 6:-0.542703 7:-0.56682 8:-0.544594 
16384 2:0.297297 3:0.243697 4:-0.743363 5:-0.441473 6:-0.532616 7:-0.536537 8:-0.554559 
16384 2:0.310811 3:0.243697 4:-0.761062 5:-0.420223 6:-0.501681 7:-0.514154 8:-0.532636 
16384 2:0.310811 3:0.243697 4:-0.743363 5:-0.514078 6:-0.585071 7:-0.65767 8:-0.5715 
16384 1:-1 2:0.310811 3:0.310924 4:-0.725664 5:-0.134408 6:-0.252858 7:-0.152074 8:-0.465869 
16384 2:0.310811 3:0.344538 4:-0.743363 5:-0.311493 6:-0.265636 7:-0.576037 8:-0.534629 
16384 2:0.324324 3:0.294118 4:-0.690265 5:-0.382681 6:-0.444519 7:-0.448321 8:-0.584454 
16384 1:1 2:0.324324 3:0.12605 4:-0.778761 5:-0.474411 6:-0.527909 7:-0.658986 8:-0.667165 
16384 2:0.337838 3:0.294118 4:-0.769912 5:-0.458474 6:-0.534633 7:-0.531271 8:-0.600399 
16384 1:-1 2:0.351351 3:0.226891 4:-0.761062 5:-0.394369 6:-0.381305 7:-0.61422 8:-0.579472 
16384 1:1 2:0.351351 3:0.361345 4:-0.725664 5:-0.369577 6:-0.407532 7:-0.537854 8:-0.564524 
16384 1:1 2:0.364865 3:0.361345 4:-0.725664 5:0.0182398 6:-0.0981843 7:-0.282423 8:-0.414051 
16384 1:1 2:0.364865 3:0.344538 4:-0.761062 5:-0.437932 6:-0.456624 7:-0.561554 8:-0.596413 
16384 1:1 2:0.378378 3:0.378151 4:-0.725664 5:-0.353639 6:-0.388702 7:-0.483871 8:-0.534629 
16384 2:0.378378 3:0.411765 4:-0.716814 5:-0.257305 6:-0.35575 7:-0.385122 8:-0.434978 
162.91679204608582 1:1 2:0.378378 3:0.361345 4:-0.707965 5:-0.212679 6:-0.217888 7:-0.383805 8:-0.456901 
16384 2:0.391892 3:0.310924 4:-0.761062 5:-0.454932 6:-0.560188 7:-0.541804 8:-0.544594 
16384 2:0.418919 3:0.411765 4:-0.734513 5:-0.208075 6:-0.241426 7:-0.352205 8:-0.464873 
16384 2:0.432432 3:0.277311 4:-0.769912 5:-0.362139 6:-0.420309 7:-0.54312 8:-0.484803 
16384 1:1 2:0.445946 3:0.327731 4:-0.734513 5:-0.384452 6:-0.453934 7:-0.518104 8:-0.504733 
16384 2:0.445946 3:0.378151 4:-0.734513 5:-0.321055 6:-0.396772 7:-0.54707 8:-0.432985 
16384 2:0.5 3:0.512605 4:-0.681416 5:-0.100407 6:-0.190989 7:-0.22449 8:-0.375187 
16384 2:0.5 3:0.411765 4:-0.743363 5:-0.250221 6:-0.306658 7:-0.423305 8:-0.444943 
16384 1:1 2:-0.0810811 3:-0.12605 4:-0.79646 5:-0.725518 6:-0.73033 7:-0.830151 8:-0.797708 
16384 2:-0.0135135 3:0.0420168 4:-0.80531 5:-0.685143 6:-0.714862 7:-0.766952 8:-0.776781 
16384 2:0.0675676 3:-0.0252101 4:-0.752212 5:-0.674517 6:-0.693342 7:-0.710336 8:-0.771799 
16384 1:1 2:0.162162 3:0.109244 4:-0.814159 5:-0.610058 6:-0.679892 7:-0.673469 8:-0.693074 
16384 1:-1 2:0.162162 3:0.092437 4:-0.761062 5:-0.515849 6:-0.515804 7:-0.589203 8:-0.682113 
16384 2:0.22973 3:0.260504 4:-0.769912 5:-0.502391 6:-0.535978 7:-0.628703 8:-0.626308 
16384 1:-1 2:0.27027 3:0.193277 4:-0.752212 5:-0.47689 6:-0.521856 7:-0.533904 8:-0.598406 
16384 1:-1 2:0.310811 3:0.277311 4:-0.734513 5:-0.384098 6:-0.361802 7:-0.518104 8:-0.63727 
16384 1:1 2:0.351351 3:0.378151 4:-0.734513 5:-0.236409 6:-0.201076 7:-0.457538 8:-0.52865 
16384 1:-1 2:0.364865 3:0.277311 4:-0.752212 5:-0.326368 6:-0.362475 7:-0.431205 8:-0.585451 
16384 1:-1 2:0.391892 3:0.378151 4:-0.734513 5:-0.186117 6:-0.176866 7:-0.371955 8:-0.501744 
16384 2:0.027027 3:0.0252101 4:-0.79646 5:-0.677705 6:-0.720915 7:-0.776169 8:-0.710015 
16384 2:0.0540541 3:0.0588235 4:-0.787611 5:-0.692226 6:-0.748487 7:-0.786702 8:-0.710015 
16384 2:0.0945946 3:0.0588235 4:-0.778761 5:-0.665663 6:-0.760592 7:-0.728769 8:-0.65421 
16384 2:0.148649 3:0.0756303 4:-0.752212 5:-0.605454 6:-0.68191 7:-0.64582 8:-0.666168 
16384 2:0.189189 3:0.0252101 4:-0.778761 5:-0.666726 6:-0.757229 7:-0.672153 8:-0.727952 
16384 2:0.189189 3:-0.00840336 4:-0.814159 5:-0.665309 6:-0.714862 7:-0.677419 8:-0.748879 
16384 2:0.202703 3:0.193277 4:-0.743363 5:-0.543829 6:-0.602555 7:-0.581303 8:-0.674141 
16384 2:0.216216 3:0.12605 4:-0.787611 5:-0.531078 6:-0.582381 7:-0.61422 8:-0.648231 
16384 2:0.22973 3:0.260504 4:-0.761062 5:-0.55835 6:-0.671822 7:-0.61817 8:-0.577479 
16384 2:0.22973 3:0.226891 4:-0.769912 5:-0.40889 6:-0.497646 7:-0.561554 8:-0.506726 
16384 2:0.256757 3:0.260504 4:-0.699115 5:-0.409244 6:-0.500336 7:-0.523371 8:-0.524664 
16384 2:0.256757 3:0.243697 4:-0.752212 5:-0.475828 6:-0.570948 7:-0.63397 8:-0.504733 
16384 2:0.256757 3:0.260504 4:-0.752212 5:-0.420931 6:-0.472091 7:-0.54707 8:-0.54559 
16384 2:0.256757 3:0.243697 4:-0.769912 5:-0.491057 6:-0.6039 7:-0.556287 8:-0.554559 
16384 2:0.27027 3:0.159664 4:-0.769912 5:-0.515495 6:-0.559516 7:-0.61817 8:-0.644245 
16384 2:0.283784 3:0.243697 4:-0.734513 5:-0.548787 6:-0.639543 7:-0.647136 8:-0.570503 
16384 2:0.283784 3:0.226891 4:-0.761062 5:-0.423411 6:-0.464022 7:-0.61027 8:-0.544594 
16384 2:0.297297 3:0.142857 4:-0.769912 5:-0.605808 6:-0.702757 7:-0.673469 8:-0.664175 
16384 2:0.310811 3:0.310924 4:-0.734513 5:-0.418806 6:-0.505716 7:-0.508887 8:-0.532636 
16384 2:0.324324 3:0.226891 4:-0.725664 5:-0.47512 6:-0.584398 7:-0.511521 8:-0.542601 
16384 1:1 2:0.324324 3:0.294118 4:-0.778761 5:-0.433327 6:-0.517821 7:-0.520737 8:-0.574489 
16384 1:1 2:0.324324 3:0.260504 4:-0.734513 5:-0.412786 6:-0.430397 7:-0.544437 8:-0.566517 
16384 2:0.337838 3:0.277311 4:-0.699115 5:-0.400744 6:-0.463349 7:-0.564187 8:-0.504733 
16384 2:0.337838 3:0.310924 4:-0.743363 5:-0.47689 6:-0.589778 7:-0.548387 8:-0.639263 
16384 2:0.351351 3:0.243697 4:-0.761062 5:-0.437223 6:-0.511769 7:-0.485188 8:-0.526657 
16384 2:0.351351 3:0.327731 4:-0.778761 5:-0.448911 6:-0.560861 7:-0.506254 8:-0.534629 
16384 2:0.351351 3:0.327731 4:-0.761062 5:-0.429786 6:-0.515131 7:-0.537854 8:-0.496761 
16384 1:1 2:0.351351 3:0.310924 4:-0.716814 5:-0.407119 6:-0.462677 7:-0.479921 8:-0.526657 
16384 1:1 2:0.364865 3:0.260504 4:-0.769912 5:-0.436161 6:-0.510424 7:-0.545754 8:-0.547583 
16384 2:0.364865 3:0.310924 4:-0.778761 5:-0.498849 6:-0.593813 7:-0.631336 8:-0.534629 
16384 1:-1 2:0.378378 3:0.310924 4:-0.752212 5:-0.354702 6:-0.422327 7:-0.420671 8:-0.498754 
16384 2:0.391892 3:0.327731 4:-0.743363 5:-0.277492 6:-0.425689 7:-0.295589 8:-0.474838 
16384 2:0.391892 3:0.361345 4:-0.743363 5:-0.362848 6:-0.437794 7:-0.531271 8:-0.484803 
16384 1:1 2:0.405405 3:0.327731 4:-0.752212 5:-0.407827 6:-0.468056 7:-0.490454 8:-0.570503 
16384 1:1 2:0.405405 3:0.327731 4:-0.743363 5:-0.322118 6:-0.378615 7:-0.457538 8:-0.497758 
16384 2:0.432432 3:0.394958 4:-0.743363 5:-0.432973 6:-0.491594 7:-0.404872 8:-0.564524 
16384 1:-1 2:0.445946 3:0.445378 4:-0.734513 5:-0.12272 6:-0.190989 7:-0.233706 8:-0.388142 
16384 2:0.445946 3:0.378151 4:-0.778761 5:-0.347972 6:-0.414929 7:-0.500987 8:-0.484803 
8228.3352483226845 2:0.486486 3:0.394958 4:-0.725664 5:-0.154595 6:-0.136516 7:-0.460171 8:-0.376183 
1351.2571176360464 2:0.486486 3:0.445378 4:-0.734513 5:-0.261909 6:-0.412239 7:-0.246873 8:-0.448929 
16384 2:0.513514 3:0.495798 4:-0.707965 5:0.0533026 6:-0.0396772 7:-0.0941409 8:-0.282511 
16384 2:0.0540541 3:-0.092437 4:-0.752212 5:-0.462015 6:-0.514459 7:-0.597103 8:-0.586447 
16384 1:1 2:0.148649 3:0.0588235 4:-0.734513 5:-0.249513 6:-0.33692 7:-0.414088 8:-0.413054 
16384 1:1 2:0.189189 3:-0.00840336 4:-0.725664 5:-0.347972 6:-0.438467 7:-0.479921 8:-0.458894 
1898.8719895837887 1:1 2:0.216216 3:0.0420168 4:-0.699115 5:-0.321055 6:-0.412239 7:-0.415405 8:-0.452915 
16384 1:-1 2:0.27027 3:0.109244 4:-0.734513 5:-0.209138 6:-0.271688 7:-0.357472 8:-0.435974 
16384 1:1 2:0.351351 3:0.294118 4:-0.672566 5:-0.275367 6:-0.318763 7:-0.410138 8:-0.507723 
16384 2:0.351351 3:0.327731 4:-0.769912 5:-0.424473 6:-0.459314 7:-0.549704 8:-0.578475 
16384 1:1 2:0.418919 3:0.378151 4:-0.707965 5:-0.266159 6:-0.332213 7:-0.420671 8:-0.50274 
16384 2:-0.0675676 3:-0.092437 4:-0.823009 5:-0.740747 6:-0.776059 7:-0.836735 8:-0.776781 
16384 2:0.0810811 3:-0.0420168 4:-0.814159 5:-0.680184 6:-0.728312 7:-0.790652 8:-0.711011 
16384 2:0.108108 3:0.0588235 4:-0.79646 5:-0.677705 6:-0.747814 7:-0.747202 8:-0.704036 
16384 2:0.148649 3:0.092437 4:-0.80531 5:-0.604392 6:-0.624748 7:-0.722186 8:-0.704036 
16384 1:-1 2:0.175676 3:0.159664 4:-0.787611 5:-0.505224 6:-0.534633 7:-0.710336 8:-0.61435 
16384 2:0.202703 3:0.210084 4:-0.752212 5:-0.549849 6:-0.587088 7:-0.64977 8:-0.668161 
16384 2:0.202703 3:0.142857 4:-0.778761 5:-0.590225 6:-0.672495 7:-0.616853 8:-0.674141 
16384 2:0.202703 3:0.109244 4:-0.79646 5:-0.589871 6:-0.6577 7:-0.59052 8:-0.717987 
16384 2:0.216216 3:0.210084 4:-0.787611 5:-0.579246 6:-0.624075 7:-0.685319 8:-0.665172 
16384 2:0.216216 3:0.159664 4:-0.743363 5:-0.569683 6:-0.667787 7:-0.58262 8:-0.65421 
16384 2:0.22973 3:0.142857 4:-0.769912 5:-0.594121 6:-0.669132 7:-0.698486 8:-0.638266 
16384 2:0.22973 3:0.176471 4:-0.787611 5:-0.553745 6:-0.63618 7:-0.611587 8:-0.629297 
16384 2:0.243243 3:0.344538 4:-0.752212 5:-0.292013 6:-0.2885 7:-0.536537 8:-0.516692 
16384 2:0.256757 3:0.142857 4:-0.761062 5:-0.537099 6:-0.637525 7:-0.593153 8:-0.620329 
16384 2:0.297297 3:0.327731 4:-0.690265 5:-0.478661 6:-0.592468 7:-0.539171 8:-0.564524 
16384 2:0.324324 3:0.277311 4:-0.743363 5:-0.403223 6:-0.466711 7:-0.585253 8:-0.494768 
16384 2:0.324324 3:0.361345 4:-0.725664 5:-0.384098 6:-0.496301 7:-0.435155 8:-0.504733 
16384 1:1 2:0.337838 3:0.210084 4:-0.769912 5:-0.378077 6:-0.426362 7:-0.486504 8:-0.52865 
16384 1:-1 2:0.337838 3:0.294118 4:-0.787611 5:-0.432619 6:-0.487559 7:-0.599737 8:-0.536622 
16384 1:1 2:0.351351 3:0.327731 4:-0.725664 5:-0.309722 6:-0.335575 7:-0.436471 8:-0.534629 
16384 1:1 2:0.351351 3:0.277311 4:-0.761062 5:-0.298743 6:-0.420309 7:-0.415405 8:-0.526657 
16384 2:0.351351 3:0.327731 4:-0.761062 5:-0.384098 6:-0.3961 7:-0.57472 8:-0.554559 
16384 2:0.351351 3:0.327731 4:-0.761062 5:-0.41739 6:-0.547411 7:-0.444371 8:-0.526657 
10246.902413192291 1:-1 2:0.351351 3:0.260504 4:-0.725664 5:-0.437932 6:-0.532616 7:-0.494404 8:-0.564524 
16384 1:1 2:0.364865 3:0.294118 4:-0.734513 5:-0.260138 6:-0.30464 7:-0.425938 8:-0.445939 
16384 2:0.364865 3:0.294118 4:-0.743363 5:-0.441473 6:-0.527236 7:-0.568137 8:-0.520678 
16384 1:1 2:0.405405 3:0.344538 4:-0.734513 5:-0.373827 6:-0.420982 7:-0.472021 8:-0.558545 
16384 2:0.527027 3:0.462185 4:-0.761062 5:-0.222242 6:-0.34499 7:-0.341672 8:-0.42003 
16384 2:0.554054 3:0.563025 4:-0.734513 5:-0.124491 6:-0.262273 7:-0.221856 8:-0.344295 
13083.175479815663 1:1 2:0.851351 3:0.848739 4:-0.619469 5:0.537808 6:0.0759919 7:0.292956 8:0.284504 
16384 2:-0.243243 3:-0.277311 4:-0.814159 5:-0.809456 6:-0.809684 7:-0.863068 8:-0.856502 
16384 1:1 2:0.0675676 3:0.0420168 4:-0.761062 5:-0.631663 6:-0.67922 7:-0.599737 8:-0.714001 
16384 2:0.0675676 3:0.0756303 4:-0.814159 5:-0.689038 6:-0.776732 7:-0.773535 8:-0.714001 
16384 1:1 2:0.162162 3:0.12605 4:-0.787611 5:-0.53887 6:-0.555481 7:-0.636603 8:-0.670154 
16384 1:1 2:0.162162 3:0.142857 4:-0.761062 5:-0.582433 6:-0.613988 7:-0.655036 8:-0.63428 
16384 1:1 2:0.162162 3:0.109244 4:-0.79646 5:-0.659642 6:-0.718897 7:-0.728769 8:-0.69706 
16384 2:0.175676 3:0.344538 4:-0.761062 5:-0.515849 6:-0.61466 7:-0.595787 8:-0.597409 
16384 1:1 2:0.189189 3:0.159664 4:-0.752212 5:-0.552683 6:-0.613988 7:-0.619487 8:-0.668161 
16384 1:1 2:0.216216 3:0.193277 4:-0.769912 5:-0.514432 6:-0.539341 7:-0.607637 8:-0.651221 
16384 1:-1 2:0.22973 3:0.260504 4:-0.734513 5:-0.476536 6:-0.564223 7:-0.512837 8:-0.612357 
16384 1:-1 2:0.22973 3:0.176471 4:-0.769912 5:-0.551266 6:-0.64694 7:-0.589203 8:-0.63428 
16384 1:1 2:0.324324 3:0.310924 4:-0.743363 5:-0.345847 6:-0.416947 7:-0.443055 8:-0.509716 
16384 1:1 2:0.364865 3:0.361345 4:-0.716814 5:-0.248451 6:-0.311365 7:-0.289006 8:-0.479821 
16384 2:-0.0135135 3:-0.159664 4:-0.79646 5:-0.732956 6:-0.783457 7:-0.761685 8:-0.783757 
16384 2:0.0540541 3:0.00840336 4:-0.840708 5:-0.695059 6:-0.731675 7:-0.806452 8:-0.748879 
16384 1:1 2:0.148649 3:0.12605 4:-0.761062 5:-0.447848 6:-0.515804 7:-0.58657 8:-0.527653 
16384 1:-1 2:0.256757 3:0.226891 4:-0.769912 5:-0.469807 6:-0.506389 7:-0.560237 8:-0.635277 
16384 1:-1 2:0.27027 3:0.260504 4:-0.716814 5:-0.403577 6:-0.470746 7:-0.512837 8:-0.542601 
16384 1:1 2:0.283784 3:0.193277 4:-0.769912 5:-0.384806 6:-0.402152 7:-0.444371 8:-0.578475 
16384 2:0.283784 3:0.226891 4:-0.79646 5:-0.528245 6:-0.607935 7:-0.640553 8:-0.586447 
16384 1:-1 2:0.324324 3:0.294118 4:-0.761062 5:-0.413494 6:-0.472764 7:-0.544437 8:-0.52865 
857.93721402333733 1:-1 2:0.662162 3:0.630252 4:-0.654867 5:-0.11422 6:-0.0195024 7:0.0454246 8:-0.0822123 
16384 1:-1 2:-0.121622 3:-0.142857 4:-0.79646 5:-0.755977 6:-0.802959 7:-0.818302 8:-0.773792 
16384 2:-0.202703 3:-0.210084 4:-0.823009 5:-0.824332 6:-0.863484 7:-0.868334 8:-0.833582 
16384 2:-0.0945946 3:-0.142857 4:-0.80531 5:-0.778289 6:-0.834566 7:-0.785385 8:-0.813652 
16384 1:1 2:-0.189189 3:-0.210084 4:-0.823009 5:-0.805915 6:-0.843309 7:-0.852535 8:-0.833582 
16384 1:-1 2:0.121622 3:0.109244 4:-0.778761 5:-0.619267 6:-0.70881 7:-0.664253 8:-0.674141 
16384 2:0.027027 3:0.00840336 4:-0.858407 5:-0.681247 6:-0.710155 7:-0.739302 8:-0.753861 
16384 2:0.027027 3:0.0588235 4:-0.778761 5:-0.694705 6:-0.731002 7:-0.668203 8:-0.714001 
16384 2:0.0810811 3:0.0252101 4:-0.80531 5:-0.678767 6:-0.763282 7:-0.747202 8:-0.714001 
16384 1:-1 2:-0.027027 3:-0.00840336 4:-0.787611 5:-0.676642 6:-0.743107 7:-0.737986 8:-0.743896 
16384 1:1 2:-0.0135135 3:-0.00840336 4:-0.80531 5:-0.676642 6:-0.732347 7:-0.768269 8:-0.743896 
16384 1:1 2:0.324324 3:0.243697 4:-0.823009 5:-0.495307 6:-0.590451 7:-0.564187 8:-0.644245 
16384 1:-1 2:0.0135135 3:0.0252101 4:-0.778761 5:-0.642642 6:-0.702757 7:-0.724819 8:-0.684106 
16384 2:0.0405405 3:-0.00840336 4:-0.80531 5:-0.721976 6:-0.774714 7:-0.773535 8:-0.753861 
16384 1:1 2:0.0675676 3:0.0588235 4:-0.814159 5:-0.670976 6:-0.728985 7:-0.734036 8:-0.694071 
16384 1:1 2:0.027027 3:-0.00840336 4:-0.814159 5:-0.717372 6:-0.789509 7:-0.782752 8:-0.733931 
16384 1:-1 2:-0.0810811 3:-0.092437 4:-0.79646 5:-0.756685 6:-0.812374 7:-0.799868 8:-0.783757 
16384 1:1 3:0.00840336 4:-0.80531 5:-0.688684 6:-0.758574 7:-0.728769 8:-0.703039 
16384 1:1 3:-0.0420168 4:-0.787611 5:-0.684434 6:-0.741762 7:-0.728769 8:-0.743896 
16384 1:-1 2:0.202703 3:0.159664 4:-0.778761 5:-0.515141 6:-0.604573 7:-0.549704 8:-0.63428 
16384 1:1 2:0.0675676 3:0.0588235 4:-0.761062 5:-0.613954 6:-0.702757 7:-0.652403 8:-0.664175 
16384 2:-0.0405405 3:-0.092437 4:-0.80531 5:-0.741101 6:-0.819099 7:-0.755102 8:-0.763827 
16384 2:-0.202703 3:-0.243697 4:-0.840708 5:-0.836373 6:-0.879623 7:-0.857801 8:-0.863478 
16384 2:-0.108108 3:-0.159664 4:-0.814159 5:-0.744643 6:-0.790854 7:-0.815668 8:-0.753861 
16384 1:-1 2:-0.027027 3:-0.109244 4:-0.787611 5:-0.73331 6:-0.796907 7:-0.760369 8:-0.753861 
16384 1:1 2:0.0540541 3:0.0252101 4:-0.769912 5:-0.628475 6:-0.718225 7:-0.689269 8:-0.674141 
16384 2:-0.243243 3:-0.243697 4:-0.823009 5:-0.840269 6:-0.875588 7:-0.881501 8:-0.833582 
16384 1:-1 2:-0.175676 3:-0.092437 4:-0.80531 5:-0.781477 6:-0.839946 7:-0.806452 8:-0.793722 
16384 1:-1 2:0.0675676 3:0.0420168 4:-0.787611 5:-0.616788 6:-0.69267 7:-0.607637 8:-0.704036 
15358.818455485707 1:1 2:0.567568 3:0.798319 4:-0.646018 5:0.0933239 6:-0.121722 7:-0.00987492 8:-0.175884 
16384 1:1 2:0.175676 3:0.176471 4:-0.769912 5:-0.493182 6:-0.500336 7:-0.585253 8:-0.664175 
16384 1:1 2:0.216216 3:0.176471 4:-0.761062 5:-0.464849 6:-0.556826 7:-0.432521 8:-0.61435 
16384 1:1 2:-0.0135135 3:0.0756303 4:-0.769912 5:-0.656455 6:-0.697377 7:-0.747202 8:-0.694071 
16384 1:-1 2:0.135135 3:0.109244 4:-0.769912 5:-0.512307 6:-0.581036 7:-0.529954 8:-0.65421 
16384 2:-0.108108 3:-0.12605 4:-0.814159 5:-0.755622 6:-0.785474 7:-0.794602 8:-0.803687 
16384 2:-0.0675676 3:-0.0756303 4:-0.823009 5:-0.752081 6:-0.781439 7:-0.766952 8:-0.803687 
16384 1:-1 2:0.148649 3:0.142857 4:-0.734513 5:-0.495307 6:-0.566241 7:-0.545754 8:-0.61435 
16384 1:1 2:0.0810811 3:0.0756303 4:-0.787611 5:-0.602621 6:-0.661735 7:-0.684003 8:-0.63428 
16384 1:-1 2:-0.175676 3:-0.176471 4:-0.840708 5:-0.773685 6:-0.793544 7:-0.803818 8:-0.813652 
16384 1:1 2:0.216216 3:0.243697 4:-0.787611 5:-0.504162 6:-0.552791 7:-0.615537 8:-0.564524 
16384 1:-1 2:0.202703 3:0.243697 4:-0.734513 5:-0.425536 6:-0.483524 7:-0.470704 8:-0.544594 
16384 1:1 2:0.0405405 3:0.0756303 4:-0.769912 5:-0.595183 6:-0.664425 7:-0.687953 8:-0.61435 
16384 1:-1 2:-0.027027 3:-0.00840336 4:-0.80531 5:-0.729414 6:-0.809011 7:-0.736669 8:-0.753861 
16384 2:-0.121622 3:-0.142857 4:-0.823009 5:-0.797769 6:-0.847344 7:-0.834101 8:-0.813652 
16384 1:-1 2:-0.0810811 3:-0.159664 4:-0.814159 5:-0.74606 6:-0.839946 7:-0.785385 8:-0.803687 
16384 2:-0.0675676 3:-0.0252101 4:-0.79646 5:-0.758102 6:-0.797579 7:-0.791968 8:-0.773792 
12510.060209088835 1:-1 2:0.959459 3:0.932773 4:-0.654867 5:0.787852 6:0.253531 7:0.552337 8:0.232686 
16384 1:-1 2:0.0135135 3:0.0252101 4:-0.814159 5:-0.667434 6:-0.72764 7:-0.755102 8:-0.706029 
6227.2974529253333 1:-1 2:0.743243 3:0.815126 4:-0.60177 5:0.393306 6:0.0806994 7:0.112574 8:0.312407 
16384 1:-1 2:-0.108108 3:-0.092437 4:-0.80531 5:-0.748185 6:-0.806321 7:-0.810402 8:-0.783757 
16384 2:-0.027027 3:-0.0588235 4:-0.80531 5:-0.730122 6:-0.792199 7:-0.823568 8:-0.733931 
16384 1:1 2:-0.283784 3:-0.260504 4:-0.840708 5:-0.855144 6:-0.903833 7:-0.888084 8:-0.863478 
16384 2:0.243243 3:0.193277 4:-0.725664 5:-0.5541 6:-0.632145 7:-0.628703 8:-0.641256 
16384 2:-0.0810811 3:-0.092437 4:-0.79646 5:-0.768727 6:-0.812374 7:-0.867018 8:-0.791729 
16384 1:-1 2:-0.22973 3:-0.294118 4:-0.840708 5:-0.848061 6:-0.872226 7:-0.903884 8:-0.856502 
16384 2:0.216216 3:0.260504 4:-0.734513 5:-0.479724 6:-0.567586 7:-0.577354 8:-0.574489 
16384 1:-1 2:-0.0135135 3:-0.0252101 4:-0.814159 5:-0.697893 6:-0.779422 7:-0.782752 8:-0.73991 
16384 1:-1 2:0.0135135 3:-0.0252101 4:-0.79646 5:-0.65008 6:-0.745124 7:-0.693219 8:-0.723966 
16384 1:-1 2:0.108108 3:0.0420168 4:-0.752212 5:-0.5626 6:-0.65232 7:-0.620803 8:-0.650224 
16384 2:0.0675676 3:-0.00840336 4:-0.761062 5:-0.599787 6:-0.68998 7:-0.615537 8:-0.699053 
16384 2:0.189189 3:0.0756303 4:-0.752212 5:-0.540641 6:-0.66577 7:-0.63002 8:-0.561535 
16384 1:1 2:-0.202703 3:-0.210084 4:-0.840708 5:-0.830707 6:-0.853396 7:-0.882818 8:-0.865471 
16384 1:1 2:-0.310811 3:-0.344538 4:-0.840708 5:-0.861874 6:-0.887021 7:-0.893351 8:-0.882412 
16384 2:0.148649 3:0.109244 4:-0.725664 5:-0.461661 6:-0.490921 7:-0.577354 8:-0.624315 
16384 3:-0.0756303 4:-0.823009 5:-0.691872 6:-0.782112 7:-0.802502 8:-0.664175 
16384 1:-1 2:0.378378 3:0.210084 4:-0.725664 5:-0.506641 6:-0.597848 7:-0.616853 8:-0.61435 
16384 2:-0.0135135 3:0.00840336 4:-0.707965 5:-0.693288 6:-0.787492 7:-0.724819 8:-0.723966 
16384 1:1 2:-0.418919 3:-0.428571 4:-0.858407 5:-0.909687 6:-0.929388 7:-0.932851 8:-0.913303 
16384 2:0.567568 3:0.546218 4:-0.743363 5:-0.115991 6:-0.293208 7:-0.25609 8:-0.375187 
16384 1:-1 2:0.162162 3:0.0756303 4:-0.79646 5:-0.58385 6:-0.64694 7:-0.685319 8:-0.670154 
16384 2:0.148649 3:0.142857 4:-0.787611 5:-0.621038 6:-0.710155 7:-0.715602 8:-0.647235 
16384 1:-1 2:0.162162 3:0.092437 4:-0.743363 5:-0.540287 6:-0.60659 7:-0.500987 8:-0.664175 
16384 2:-0.0675676 3:-0.159664 4:-0.80531 5:-0.803081 6:-0.874916 7:-0.794602 8:-0.812656 
16384 1:1 2:-0.121622 3:-0.12605 4:-0.814159 5:-0.798123 6:-0.848689 7:-0.903884 8:-0.777778 
16384 1:1 2:-0.0540541 3:-0.12605 4:-0.778761 5:-0.751727 6:-0.848689 7:-0.852535 8:-0.743896 
16384 1:1 2:-0.364865 3:-0.394958 4:-0.893805 5:-0.916416 6:-0.945528 7:-0.914417 8:-0.923269 
16384 1:-1 2:0.0540541 3:-0.00840336 4:-0.769912 5:-0.651496 6:-0.739744 7:-0.730086 8:-0.694071 
16384 1:-1 2:0.0540541 3:0.0252101 4:-0.787611 5:-0.663892 6:-0.743107 7:-0.705069 8:-0.684106 
16384 1:1 2:-0.256757 3:-0.327731 4:-0.849558 5:-0.849478 6:-0.866846 7:-0.878868 8:-0.883408 
16384 1:-1 2:0.0810811 3:0.0420168 4:-0.769912 5:-0.661059 6:-0.745124 7:-0.701119 8:-0.709018 
16384 1:-1 2:-0.0945946 3:-0.12605 4:-0.80531 5:-0.774039 6:-0.832549 7:-0.828835 8:-0.813652 
16384 1:-1 2:0.22973 3:0.109244 4:-0.778761 5:-0.527183 6:-0.612643 7:-0.603687 8:-0.644245 
16384 1:1 2:-0.283784 3:-0.327731 4:-0.831858 5:-0.85054 6:-0.892401 7:-0.911784 8:-0.863478 
4078.324682027062 2:0.202703 3:0.092437 4:-0.752212 5:-0.629538 6:-0.762609 7:-0.698486 8:-0.63428 
16384 2:-0.297297 3:-0.378151 4:-0.831858 5:-0.880999 6:-0.917956 7:-0.898618 8:-0.893373 
16384 1:-1 2:-0.27027 3:-0.327731 4:-0.823009 5:-0.861874 6:-0.905851 7:-0.867018 8:-0.883408 
16384 1:1 2:0.0540541 3:0.00840336 4:-0.778761 5:-0.629184 6:-0.728985 7:-0.64582 8:-0.714001 
16384 1:1 2:0.0810811 3:0.00840336 4:-0.778761 5:-0.673809 6:-0.751177 7:-0.719552 8:-0.714001 
16384 1:-1 3:-0.0588235 4:-0.752212 5:-0.678059 6:-0.761264 7:-0.701119 8:-0.723966 
16384 1:1 2:0.148649 3:0.00840336 4:-0.752212 5:-0.627413 6:-0.715535 7:-0.608953 8:-0.723966 
16384 1:1 2:0.148649 3:0.092437 4:-0.761062 5:-0.5881 6:-0.69267 7:-0.668203 8:-0.644245 
16384 1:-1 2:-0.202703 3:-0.226891 4:-0.814159 5:-0.810165 6:-0.850034 7:-0.847268 8:-0.836572 
16384 1:-1 2:-0.0675676 3:-0.0756303 4:-0.778761 5:-0.673455 6:-0.751177 7:-0.711652 8:-0.714001 
16384 1:1 2:-0.256757 3:-0.310924 4:-0.840708 5:-0.861165 6:-0.903833 7:-0.853851 8:-0.883408 
16384 1:1 2:-0.135135 3:-0.159664 4:-0.814159 5:-0.801665 6:-0.870208 7:-0.830151 8:-0.811659 
16384 1:1 2:-0.0540541 3:-0.092437 4:-0.787611 5:-0.735435 6:-0.810356 7:-0.720869 8:-0.793722 
16384 1:1 2:-0.121622 3:-0.159664 4:-0.769912 5:-0.793519 6:-0.872226 7:-0.823568 8:-0.793722 
16384 1:-1 2:-0.310811 3:-0.310924 4:-0.858407 5:-0.859749 6:-0.917283 7:-0.869651 8:-0.863478 
16384 2:0.0810811 3:0.0420168 4:-0.787611 5:-0.625996 6:-0.664425 7:-0.744569 8:-0.679123 
16384 1:1 2:0.216216 3:0.243697 4:-0.663717 5:-0.383744 6:-0.379287 7:-0.54707 8:-0.606378 
16384 1:1 2:0.256757 3:0.226891 4:-0.787611 5:-0.426598 6:-0.474109 7:-0.61817 8:-0.557549 
16384 1:-1 2:0.324324 3:0.294118 4:-0.734513 5:-0.305118 6:-0.399462 7:-0.381172 8:-0.507723 
16384 1:1 2:0.0540541 3:-0.0420168 4:-0.814159 5:-0.657163 6:-0.690652 7:-0.728769 8:-0.758844 
16384 1:1 2:0.189189 3:0.142857 4:-0.787611 5:-0.543829 6:-0.618023 7:-0.64187 8:-0.660189 
16384 1:1 2:0.256757 3:0.277311 4:-0.752212 5:-0.48114 6:-0.557498 7:-0.581303 8:-0.578475 
16384 1:-1 2:0.337838 3:0.310924 4:-0.734513 5:-0.296618 6:-0.32347 7:-0.514154 8:-0.503737 
16384 1:1 2:0.148649 3:0.092437 4:-0.787611 5:-0.593058 6:-0.634163 7:-0.64582 8:-0.714001 
16384 2:0.189189 3:0.159664 4:-0.778761 5:-0.581725 6:-0.644923 7:-0.691903 8:-0.668161 
16384 2:0.202703 3:0.142857 4:-0.761062 5:-0.553037 6:-0.599866 7:-0.660303 8:-0.65421 
16384 1:-1 2:0.27027 3:0.260504 4:-0.752212 5:-0.412077 6:-0.415602 7:-0.553654 8:-0.602392 
16384 1:-1 2:0.27027 3:0.159664 4:-0.752212 5:-0.450328 6:-0.506389 7:-0.435155 8:-0.644245 
16384 1:1 2:0.324324 3:0.260504 4:-0.769912 5:-0.446078 6:-0.531271 7:-0.504937 8:-0.578475 
16384 1:1 2:0.337838 3:0.327731 4:-0.761062 5:-0.278909 6:-0.26698 7:-0.464121 8:-0.504733 
16384 1:-1 2:0.337838 3:0.260504 4:-0.716814 5:-0.426952 6:-0.480161 7:-0.58262 8:-0.547583 
16384 1:1 2:0.391892 3:0.361345 4:-0.752212 5:-0.290243 6:-0.33423 7:-0.431205 8:-0.484803 
16384 1:1 2:0.405405 3:0.361345 4:-0.752212 5:-0.39791 6:-0.434432 7:-0.407505 8:-0.550573 
16384 1:-1 2:0.459459 3:0.411765 4:-0.699115 5:-0.254117 6:-0.271015 7:-0.353522 8:-0.535625 
16384 3:0.0252101 4:-0.80531 5:-0.701434 6:-0.756557 7:-0.799868 8:-0.723966 
16384 1:1 2:0.0945946 3:0.0756303 4:-0.787611 5:-0.58385 6:-0.66039 7:-0.664253 8:-0.660189 
16384 2:0.121622 3:0.0420168 4:-0.778761 5:-0.605808 6:-0.662408 7:-0.669519 8:-0.681116 
16384 2:0.162162 3:0.109244 4:-0.778761 5:-0.579246 6:-0.671822 7:-0.745885 8:-0.584454 
16384 2:0.162162 3:0.092437 4:-0.761062 5:-0.619975 6:-0.645595 7:-0.751152 8:-0.674141 
16384 1:-1 2:0.216216 3:0.210084 4:-0.734513 5:-0.501682 6:-0.558843 7:-0.61422 8:-0.606378 
16384 2:0.216216 3:0.0756303 4:-0.787611 5:-0.5541 6:-0.591796 7:-0.701119 8:-0.624315 
16384 2:0.283784 3:0.260504 4:-0.743363 5:-0.497078 6:-0.594486 7:-0.601053 8:-0.554559 
16384 2:0.283784 3:0.243697 4:-0.743363 5:-0.370993 6:-0.419637 7:-0.55102 8:-0.532636 
16384 2:0.283784 3:0.226891 4:-0.725664 5:-0.35541 6:-0.335575 7:-0.526004 8:-0.59442 
16384 2:0.283784 3:0.243697 4:-0.761062 5:-0.536745 6:-0.655683 7:-0.553654 8:-0.598406 
16384 2:0.283784 3:0.378151 4:-0.734513 5:-0.33841 6:-0.354405 7:-0.54312 8:-0.517688 
16384 2:0.310811 3:0.294118 4:-0.752212 5:-0.417036 6:-0.460659 7:-0.635286 8:-0.514699 
16384 1:-1 2:0.337838 3:0.310924 4:-0.725664 5:-0.281034 6:-0.293208 7:-0.468071 8:-0.474838 
16384 1:-1 2:0.351351 3:0.277311 4:-0.725664 5:-0.365681 6:-0.447882 7:-0.389072 8:-0.544594 
16384 2:0.378378 3:0.226891 4:-0.743363 5:-0.524349 6:-0.61197 7:-0.647136 8:-0.564524 
16384 1:1 2:0.418919 3:0.327731 4:-0.743363 5:-0.380202 6:-0.419637 7:-0.593153 8:-0.524664 
16384 1:1 2:0.527027 3:0.546218 4:-0.858407 5:-0.263326 6:-0.308675 7:-0.539171 8:-0.65421 
16384 1:1 2:0.148649 3:0.0420168 4:-0.769912 5:-0.580308 6:-0.585743 7:-0.715602 8:-0.69706 
16384 1:1 2:0.202703 3:0.159664 4:-0.814159 5:-0.383744 6:-0.394082 7:-0.576037 8:-0.607374 
16384 1:-1 2:0.216216 3:0.260504 4:-0.761062 5:-0.403931 6:-0.419637 7:-0.527321 8:-0.641256 
16384 1:-1 2:0.256757 3:0.226891 4:-0.752212 5:-0.432265 6:-0.490249 7:-0.526004 8:-0.584454 
16384 1:-1 2:0.256757 3:0.210084 4:-0.734513 5:-0.426598 6:-0.480161 7:-0.507571 8:-0.597409 
16384 1:1 2:0.364865 3:0.310924 4:-0.716814 5:-0.304409 6:-0.3423 7:-0.472021 8:-0.464873 
16384 2:0.0405405 3:0.0252101 4:-0.752212 5:-0.684788 6:-0.784802 7:-0.772219 8:-0.684106 
16384 2:0.148649 3:0.12605 4:-0.769912 5:-0.641934 6:-0.71688 7:-0.727452 8:-0.653214 
16384 2:0.162162 3:0.243697 4:-0.778761 5:-0.568266 6:-0.671822 7:-0.639236 8:-0.604385 
16384 2:0.175676 3:0.159664 4:-0.743363 5:-0.59235 6:-0.690652 7:-0.624753 8:-0.650224 
16384 2:0.256757 3:0.243697 4:-0.769912 5:-0.423765 6:-0.507061 7:-0.64187 8:-0.512706 
16384 2:0.256757 3:0.210084 4:-0.80531 5:-0.562954 6:-0.6308 7:-0.60632 8:-0.651221 
16384 2:0.27027 3:0.260504 4:-0.734513 5:-0.475828 6:-0.527236 7:-0.585253 8:-0.58844 
16384 1:-1 2:0.283784 3:0.277311 4:-0.752212 5:-0.473703 6:-0.534633 7:-0.54312 8:-0.55157 
16384 2:0.310811 3:0.277311 4:-0.769912 5:-0.451036 6:-0.525219 7:-0.545754 8:-0.560538 
16384 2:0.351351 3:0.344538 4:-0.716814 5:-0.300514 6:-0.335575 7:-0.487821 8:-0.512706 
16384 1:-1 2:0.364865 3:0.327731 4:-0.699115 5:-0.313972 6:-0.380632 7:-0.390388 8:-0.508719 
16384 1:-1 2:0.364865 3:0.294118 4:-0.778761 5:-0.445015 6:-0.513114 7:-0.486504 8:-0.61435 
16384 2:0.378378 3:0.327731 4:-0.761062 5:-0.395785 6:-0.490921 7:-0.508887 8:-0.484803 
16384 2:0.391892 3:0.361345 4:-0.778761 5:-0.466619 6:-0.552118 7:-0.60632 8:-0.52865 
16384 2:0.391892 3:0.411765 4:-0.743363 5:-0.311139 6:-0.372562 7:-0.456221 8:-0.486796 
16384 1:1 2:0.405405 3:0.361345 4:-0.699115 5:-0.201346 6:-0.234701 7:-0.328506 8:-0.474838 
16384 2:0.418919 3:0.310924 4:-0.761062 5:-0.349389 6:-0.402824 7:-0.465438 8:-0.498754 
16384 2:0.445946 3:0.243697 4:-0.725664 5:-0.258721 6:-0.319435 7:-0.486504 8:-0.456901 
16384 2:0.445946 3:0.462185 4:-0.716814 5:-0.183637 6:-0.212508 7:-0.373272 8:-0.422023 
16384 1:-1 2:0.243243 3:0.159664 4:-0.734513 5:-0.134408 6:-0.170141 7:-0.277156 8:-0.429995 
16384 1:1 2:0.297297 3:0.243697 4:-0.734513 5:-0.383035 6:-0.379287 7:-0.515471 8:-0.61136 
16384 1:1 2:0.310811 3:0.243697 4:-0.761062 5:-0.334514 6:-0.316745 7:-0.470704 8:-0.609367 
16384 1:-1 2:0.391892 3:0.294118 4:-0.752212 5:-0.288118 6:-0.359112 7:-0.447005 8:-0.42003 
16384 2:-0.0135135 3:-0.109244 4:-0.814159 5:-0.726935 6:-0.765299 7:-0.806452 8:-0.763827 
16384 2:0.027027 3:0.00840336 4:-0.814159 5:-0.737914 6:-0.815736 7:-0.799868 8:-0.733931 
16384 2:0.0810811 3:0.0756303 4:-0.80531 5:-0.678413 6:-0.756557 7:-0.740619 8:-0.684106 
16384 2:0.202703 3:0.193277 4:-0.752212 5:-0.532141 6:-0.62811 7:-0.591837 8:-0.612357 
16384 2:0.202703 3:0.142857 4:-0.79646 5:-0.544891 6:-0.577001 7:-0.673469 8:-0.632287 
16384 2:0.283784 3:0.176471 4:-0.734513 5:-0.522933 6:-0.595831 7:-0.615537 8:-0.584454 
16384 2:0.324324 3:0.294118 4:-0.761062 5:-0.457411 6:-0.556826 7:-0.636603 8:-0.509716 
16384 2:0.351351 3:0.310924 4:-0.716814 5:-0.351514 6:-0.3961 7:-0.491771 8:-0.524664 
16384 1:-1 2:0.364865 3:0.277311 4:-0.725664 5:-0.379139 6:-0.429724 7:-0.557604 8:-0.519681 
16384 1:1 2:0.391892 3:0.277311 4:-0.707965 5:-0.309722 6:-0.392737 7:-0.370639 8:-0.534629 
16384 1:1 2:0.0405405 3:0.00840336 4:-0.752212 5:-0.653621 6:-0.722932 7:-0.698486 8:-0.656203 
16384 1:1 2:0.135135 3:0.092437 4:-0.787611 5:-0.665663 6:-0.736382 7:-0.720869 8:-0.695067 
16384 1:1 2:0.175676 3:0.142857 4:-0.778761 5:-0.590225 6:-0.673167 7:-0.64977 8:-0.628301 
16384 1:1 2:0.216216 3:0.159664 4:-0.769912 5:-0.560829 6:-0.64425 7:-0.61422 8:-0.636273 
16384 1:1 2:0.22973 3:0.210084 4:-0.787611 5:-0.501328 6:-0.550101 7:-0.57077 8:-0.734928 
16384 1:-1 2:0.22973 3:0.142857 4:-0.79646 5:-0.598725 6:-0.666443 7:-0.639236 8:-0.682113 
16384 1:1 2:0.364865 3:0.260504 4:-0.778761 5:-0.355764 6:-0.401479 7:-0.454905 8:-0.761834 
16384 1:1 2:0.0540541 3:0.176471 4:-0.761062 5:-0.450682 6:-0.414929 7:-0.549704 8:-0.713004 
16384 1:-1 2:0.216216 3:0.159664 4:-0.761062 5:-0.495661 6:-0.573638 7:-0.63792 8:-0.58844 
16384 1:-1 2:0.216216 3:0.159664 4:-0.769912 5:-0.505932 6:-0.582381 7:-0.656353 8:-0.558545 
-16384 1:1 2:-0.256757 3:-0.294118 4:-0.840708 5:-0.841686 6:-0.867518 7:-0.873601 8:-0.863478 
-16384 2:-0.0540541 3:-0.176471 4:-0.831858 5:-0.752435 6:-0.811701 7:-0.797235 8:-0.763827 
-16384 2:-0.243243 3:-0.243697 4:-0.849558 5:-0.795644 6:-0.873571 7:-0.897301 8:-0.773792 
-16384 1:1 2:-0.216216 3:-0.193277 4:-0.858407 5:-0.820436 6:-0.870881 7:-0.888084 8:-0.803687 
-16384 1:1 2:0.0540541 3:0.00840336 4:-0.814159 5:-0.661767 6:-0.696032 7:-0.674786 8:-0.753861 
-16384 1:-1 2:0.0135135 3:0.00840336 4:-0.814159 5:-0.631309 6:-0.682582 7:-0.694536 8:-0.714001 
-16384 1:-1 2:0.0405405 3:0.0756303 4:-0.787611 5:-0.675226 6:-0.762609 7:-0.711652 8:-0.704036 
-16384 2:0.202703 3:0.193277 4:-0.787611 5:-0.579954 6:-0.680565 7:-0.709019 8:-0.624315 
-16384 1:1 2:-0.121622 3:-0.109244 4:-0.831858 5:-0.786789 6:-0.821789 7:-0.843318 8:-0.803687 
-16384 1:1 2:-0.108108 3:-0.142857 4:-0.823009 5:-0.728706 6:-0.768662 7:-0.760369 8:-0.783757 
-16384 1:-1 2:0.148649 3:0.159664 4:-0.752212 5:-0.532849 6:-0.656355 7:-0.539171 8:-0.564524 
-16384 1:1 3:-0.00840336 4:-0.787611 5:-0.687976 6:-0.743107 7:-0.749835 8:-0.733931 
-16384 1:1 2:0.0675676 3:0.109244 4:-0.761062 5:-0.58385 6:-0.629455 7:-0.685319 8:-0.664175 
-16384 1:-1 2:0.162162 3:0.159664 4:-0.778761 5:-0.588454 6:-0.670477 7:-0.658986 8:-0.65421 
-16384 1:1 2:0.0135135 3:-0.0252101 4:-0.814159 5:-0.709934 6:-0.759247 7:-0.705069 8:-0.733931 
-16384 1:1 2:-0.0540541 3:-0.092437 4:-0.831858 5:-0.73331 6:-0.772024 7:-0.790652 8:-0.803687 
-16384 1:1 2:0.202703 3:0.159664 4:-0.787611 5:-0.590579 6:-0.686617 7:-0.655036 8:-0.63428 
-16384 1:1 2:0.0810811 3:0.00840336 4:-0.787611 5:-0.661413 6:-0.686617 7:-0.734036 8:-0.733931 
-16384 1:-1 2:-0.121622 3:-0.109244 4:-0.80531 5:-0.751372 6:-0.812374 7:-0.741935 8:-0.803687 
-16384 1:1 2:0.0675676 3:0.0756303 4:-0.769912 5:-0.630954 6:-0.713517 7:-0.65372 8:-0.714001 
-16384 1:1 2:0.0675676 3:0.0588235 4:-0.769912 5:-0.631309 6:-0.731002 7:-0.651086 8:-0.674141 
-16384 1:1 2:-0.108108 3:-0.159664 4:-0.849558 5:-0.816894 6:-0.847344 7:-0.844635 8:-0.833582 
-1897.9977984096479 1:1 2:-0.202703 3:-0.294118 4:-0.867257 5:-0.849832 6:-0.880296 7:-0.867018 8:-0.863478 
-16384 1:-1 2:-0.324324 3:-0.310924 4:-0.840708 5:-0.865769 6:-0.887021 7:-0.906517 8:-0.879422 
-16384 1:-1 2:-0.0540541 3:-0.0756303 4:-0.79646 5:-0.71383 6:-0.781439 7:-0.788018 8:-0.732935 
-12368.780874618953 1:-1 2:-0.378378 3:-0.411765 4:-0.858407 5:-0.890916 6:-0.910558 7:-0.910467 8:-0.907324 
-16384 1:-1 2:0.22973 3:0.142857 4:-0.743363 5:-0.452453 6:-0.587088 7:-0.556287 8:-0.494768 
-16384 1:1 2:0.216216 3:0.277311 4:-0.725664 5:-0.247034 6:-0.34768 7:-0.387755 8:-0.434978 
-16384 1:-1 2:0.202703 3:0.176471 4:-0.79646 5:-0.451744 6:-0.570948 7:-0.515471 8:-0.564524 
-16384 2:-0.243243 3:-0.260504 4:-0.849558 5:-0.845582 6:-0.877606 7:-0.843318 8:-0.704036 
-16384 1:1 2:-0.0675676 3:-0.0588235 4:-0.79646 5:-0.740039 6:-0.771352 7:-0.814352 8:-0.763827 
-16384 2:-0.027027 3:-0.0420168 4:-0.80531 5:-0.732601 6:-0.800269 7:-0.777485 8:-0.763827 
-16384 1:1 2:-0.297297 3:-0.344538 4:-0.840708 5:-0.873207 6:-0.899798 7:-0.892034 8:-0.883408 
-16384 1:1 2:0.0135135 3:-0.00840336 4:-0.769912 5:-0.67558 6:-0.767317 7:-0.709019 8:-0.733931 
-16384 2:-0.108108 3:-0.176471 4:-0.787611 5:-0.771914 6:-0.831204 7:-0.816985 8:-0.783757 
-16384 1:-1 2:-0.0810811 3:-0.159664 4:-0.769912 5:-0.774748 6:-0.825824 7:-0.802502 8:-0.793722 
-16384 1:-1 2:-0.148649 3:-0.210084 4:-0.778761 5:-0.785019 6:-0.838601 7:-0.785385 8:-0.823617 
-16384 2:-0.27027 3:-0.277311 4:-0.80531 5:-0.850186 6:-0.891056 7:-0.857801 8:-0.863478 
-808.56459260561019 1:1 2:-0.472973 3:-0.512605 4:-0.858407 5:-0.916062 6:-0.938803 7:-0.927584 8:-0.923269 
-16384 1:1 2:-0.256757 3:-0.260504 4:-0.80531 5:-0.794227 6:-0.836584 7:-0.834101 8:-0.822621 
-16384 2:-0.22973 3:-0.226891 4:-0.814159 5:-0.830352 6:-0.878278 7:-0.851218 8:-0.853513 
-16384 1:1 2:-0.202703 3:-0.243697 4:-0.823009 5:-0.822915 6:-0.858104 7:-0.844635 8:-0.855506 
-16384 1:1 2:-0.22973 3:-0.277311 4:-0.823009 5:-0.847707 6:-0.882313 7:-0.870968 8:-0.860488 
-16384 2:0.0135135 3:0.00840336 4:-0.80531 5:-0.676642 6:-0.740417 7:-0.824885 8:-0.723966 
-16384 1:1 2:-0.297297 3:-0.294118 4:-0.814159 5:-0.844165 6:-0.875588 7:-0.853851 8:-0.853513 
-16384 2:-0.243243 3:-0.260504 4:-0.840708 5:-0.823623 6:-0.870881 7:-0.861751 8:-0.843548 
-16384 1:1 2:-0.22973 3:-0.193277 4:-0.814159 5:-0.830707 6:-0.885003 7:-0.861751 8:-0.813652 
-16384 2:-0.22973 3:-0.243697 4:-0.840708 5:-0.841686 6:-0.882313 7:-0.895984 8:-0.823617 
-16384 1:-1 2:-0.121622 3:-0.092437 4:-0.787611 5:-0.77581 6:-0.821116 7:-0.852535 8:-0.813652 
-16384 1:-1 2:0.0405405 3:0.243697 4:-0.725664 5:-0.472995 6:-0.597176 7:-0.601053 8:-0.524664 
-16384 2:-0.189189 3:-0.159664 4:-0.79646 5:-0.809102 6:-0.877606 7:-0.806452 8:-0.823617 
-16384 1:-1 2:0.445946 3:0.478992 4:-0.672566 5:-0.1847 6:-0.28043 7:-0.23634 8:-0.514699 
-16384 2:-0.27027 3:-0.260504 4:-0.831858 5:-0.860103 6:-0.899798 7:-0.860434 8:-0.863478 
-16384 1:1 2:0.0675676 3:0.092437 4:-0.743363 5:-0.585975 6:-0.680565 7:-0.62212 8:-0.63428 
-16384 1:-1 2:-0.027027 3:-0.092437 4:-0.80531 5:-0.694351 6:-0.761937 7:-0.741935 8:-0.694071 
-16384 2:-0.0135135 3:-0.0252101 4:-0.787611 5:-0.742872 6:-0.778749 7:-0.782752 8:-0.783757 
-16384 1:1 2:0.0135135 3:0.00840336 4:-0.79646 5:-0.662121 6:-0.715535 7:-0.726136 8:-0.704036 
-16384 1:1 2:0.337838 3:0.294118 4:-0.831858 5:-0.415619 6:-0.544721 7:-0.418038 8:-0.534629 
-16384 2:-0.22973 3:-0.260504 4:-0.831858 5:-0.847707 6:-0.888366 7:-0.886768 8:-0.823617 
-16384 1:-1 2:-0.27027 3:-0.344538 4:-0.840708 5:-0.857624 6:-0.896436 7:-0.845951 8:-0.893373 
-16384 1:-1 2:-0.22973 3:-0.277311 4:-0.840708 5:-0.867894 6:-0.887693 7:-0.899934 8:-0.893373 
-16384 1:1 2:-0.418919 3:-0.411765 4:-0.867257 5:-0.918895 6:-0.94351 7:-0.934167 8:-0.923269 
-16384 1:1 3:-0.00840336 4:-0.79646 5:-0.745352 6:-0.790854 7:-0.818302 8:-0.769806 
-16384 1:-1 2:-0.0135135 3:-0.0420168 4:-0.814159 5:-0.743581 6:-0.802286 7:-0.789335 8:-0.768809 
-16384 1:1 2:-0.337838 3:-0.378151 4:-0.849558 5:-0.880999 6:-0.913248 7:-0.877551 8:-0.905331 
-16384 1:-1 2:-0.175676 3:-0.159664 4:-0.831858 5:-0.802019 6:-0.832549 7:-0.863068 8:-0.823617 
-16384 1:-1 2:-0.0405405 3:-0.0420168 4:-0.787611 5:-0.724455 6:-0.792199 7:-0.751152 8:-0.72297 
-16384 1:1 2:-0.243243 3:-0.294118 4:-0.840708 5:-0.882415 6:-0.934095 7:-0.893351 8:-0.877429 
-16384 1:1 2:-0.310811 3:-0.327731 4:-0.831858 5:-0.868603 6:-0.902488 7:-0.882818 8:-0.883408 
-16384 1:-1 2:-0.202703 3:-0.260504 4:-0.823009 5:-0.843811 6:-0.876261 7:-0.932851 8:-0.843548 
-16384 1:-1 2:-0.027027 3:-0.092437 4:-0.79646 5:-0.724101 6:-0.794217 7:-0.753785 8:-0.763827 
-16384 2:-0.324324 3:-0.344538 4:-0.858407 5:-0.876749 6:-0.921318 7:-0.907834 8:-0.877429 
-16384 1:1 2:-0.243243 3:-0.294118 4:-0.849558 5:-0.85904 6:-0.908541 7:-0.861751 8:-0.864474 
-16384 1:-1 2:-0.22973 3:-0.294118 4:-0.840708 5:-0.855144 6:-0.896436 7:-0.851218 8:-0.883408 
-16384 2:0.108108 3:0.0756303 4:-0.752212 5:-0.632371 6:-0.732347 7:-0.677419 8:-0.664175 
-16384 1:1 2:-0.162162 3:-0.260504 4:-0.79646 5:-0.811227 6:-0.870208 7:-0.784068 8:-0.833582 
-16384 1:1 2:-0.108108 3:-0.159664 4:-0.787611 5:-0.77581 6:-0.835239 7:-0.763002 8:-0.813652 
-4634.2796645892222 2:-0.256757 3:-0.277311 4:-0.840708 5:-0.855853 6:-0.900471 7:-0.849901 8:-0.879422 
-16384 2:-0.162162 3:-0.176471 4:-0.823009 5:-0.796352 6:-0.837929 7:-0.835418 8:-0.823617 
-16384 2:-0.121622 3:-0.142857 4:-0.823009 5:-0.784664 6:-0.826496 7:-0.843318 8:-0.815645 
-16384 2:-0.0540541 3:-0.092437 4:-0.823009 5:-0.719497 6:-0.841964 7:-0.831468 8:-0.814649 
-16384 2:0.0135135 3:-0.00840336 4:-0.769912 5:-0.613954 6:-0.671822 7:-0.631336 8:-0.72297 
-16384 1:1 2:0.0675676 3:0.0756303 4:-0.787611 5:-0.590225 6:-0.643578 7:-0.755102 8:-0.666168 
-16384 1:-1 2:0.0945946 3:0.0420168 4:-0.761062 5:-0.548433 6:-0.605245 7:-0.703752 8:-0.65421 
-16384 1:1 2:0.121622 3:0.109244 4:-0.778761 5:-0.570037 6:-0.589106 7:-0.748519 8:-0.649228 
-16384 1:1 2:0.162162 3:0.294118 4:-0.752212 5:-0.415265 6:-0.542031 7:-0.512837 8:-0.526657 
-16384 1:1 2:0.216216 3:0.142857 4:-0.769912 5:-0.460599 6:-0.547411 7:-0.62607 8:-0.554559 
-16384 1:-1 2:0.283784 3:0.260504 4:-0.778761 5:-0.347618 6:-0.458642 7:-0.540487 8:-0.438964 
-16384 1:-1 2:0.405405 3:0.428571 4:-0.716814 5:-0.144679 6:-0.298588 7:-0.221856 8:-0.365222 
-16384 1:-1 2:0.405405 3:0.411765 4:-0.716814 5:-0.193554 6:-0.265636 7:-0.393022 8:-0.46288 
-16384 1:-1 2:0.527027 3:0.529412 4:-0.707965 5:0.0511776 6:0.0201748 7:-0.127057 8:-0.363229 
-16384 2:-0.0540541 3:-0.0420168 4:-0.823009 5:-0.730831 6:-0.780767 7:-0.748519 8:-0.803687 
-16384 2:-0.0405405 3:-0.092437 4:-0.823009 5:-0.743226 6:-0.789509 7:-0.784068 8:-0.793722 
-16384 2:-0.027027 3:-0.092437 4:-0.787611 5:-0.718435 6:-0.757229 7:-0.840685 8:-0.778774 
-16384 2:-0.027027 3:-0.0420168 4:-0.79646 5:-0.723393 6:-0.755884 7:-0.795918 8:-0.774788 
-16384 2:-0.0135135 3:-0.0252101 4:-0.769912 5:-0.683018 6:-0.720242 7:-0.781435 8:-0.735924 
-16384 1:-1 3:-0.0588235 4:-0.80531 5:-0.692934 6:-0.728985 7:-0.712969 8:-0.764823 
-16384 3:-0.00840336 4:-0.769912 5:-0.704268 6:-0.773369 7:-0.752469 8:-0.764823 
-16384 2:0.0135135 3:0.0252101 4:-0.769912 5:-0.66283 6:-0.744452 7:-0.666886 8:-0.729945 
-16384 2:0.0135135 3:0.00840336 4:-0.814159 5:-0.686559 6:-0.736382 7:-0.756419 8:-0.736921 
-16384 2:0.027027 3:0.00840336 4:-0.778761 5:-0.624225 6:-0.698722 7:-0.669519 8:-0.711011 
-16384 2:0.027027 3:0.0756303 4:-0.787611 5:-0.649371 6:-0.6846 7:-0.723502 8:-0.744893 
-16384 2:0.0405405 3:-0.0252101 4:-0.814159 5:-0.683372 6:-0.737727 7:-0.752469 8:-0.750872 
-16384 2:0.0540541 3:0.0588235 4:-0.79646 5:-0.623163 6:-0.650303 7:-0.743252 8:-0.717987 
-16384 2:0.0540541 3:-0.0252101 4:-0.80531 5:-0.688684 6:-0.765299 7:-0.763002 8:-0.763827 
-16384 1:-1 2:0.0540541 3:-0.00840336 4:-0.778761 5:-0.659996 6:-0.691997 7:-0.722186 8:-0.784753 
-16384 1:1 2:0.0675676 3:0.0420168 4:-0.787611 5:-0.567912 6:-0.561533 7:-0.60632 8:-0.723966 
-16384 1:-1 2:0.0675676 3:0.0420168 4:-0.787611 5:-0.589162 6:-0.611298 7:-0.759052 8:-0.712008 
-16384 1:1 2:0.0945946 3:0.0756303 4:-0.79646 5:-0.522224 6:-0.570276 7:-0.720869 8:-0.664175 
-16384 1:1 2:0.0945946 3:0.109244 4:-0.743363 5:-0.548079 6:-0.607935 7:-0.631336 8:-0.689088 
-16384 1:1 2:0.0945946 3:0.0252101 4:-0.823009 5:-0.690455 6:-0.740417 7:-0.740619 8:-0.773792 
-16384 1:1 2:0.0945946 3:0.0420168 4:-0.787611 5:-0.57535 6:-0.581708 7:-0.693219 8:-0.723966 
-16384 1:-1 2:0.108108 3:0.0588235 4:-0.79646 5:-0.662476 6:-0.73302 7:-0.749835 8:-0.745889 
-16384 1:1 2:0.121622 3:0.109244 4:-0.778761 5:-0.541704 6:-0.570948 7:-0.674786 8:-0.665172 
-16384 1:1 2:0.135135 3:0.142857 4:-0.761062 5:-0.552683 6:-0.593141 7:-0.660303 8:-0.705032 
-16384 1:1 2:0.135135 3:0.159664 4:-0.761062 5:-0.569329 6:-0.635508 7:-0.623436 8:-0.715994 
-16384 1:1 2:0.148649 3:0.12605 4:-0.761062 5:-0.534266 6:-0.578346 7:-0.597103 8:-0.691081 
-16384 1:1 2:0.148649 3:0.109244 4:-0.761062 5:-0.546308 6:-0.571621 7:-0.661619 8:-0.69706 
-16384 1:1 2:0.148649 3:0.159664 4:-0.778761 5:-0.525058 6:-0.549428 7:-0.685319 8:-0.639263 
-16384 2:0.162162 3:0.12605 4:-0.734513 5:-0.516203 6:-0.514459 7:-0.656353 8:-0.692078 
-16384 2:0.162162 3:0.00840336 4:-0.778761 5:-0.575704 6:-0.665098 7:-0.684003 8:-0.63428 
-16384 1:1 2:0.175676 3:0.12605 4:-0.761062 5:-0.456703 6:-0.472091 7:-0.61817 8:-0.624315 
-16384 2:0.175676 3:0.0756303 4:-0.823009 5:-0.591642 6:-0.681237 7:-0.678736 8:-0.65421 
-16384 2:0.175676 3:0.176471 4:-0.761062 5:-0.456703 6:-0.509751 7:-0.583937 8:-0.644245 
-16384 1:1 2:0.175676 3:0.176471 4:-0.734513 5:-0.503099 6:-0.534633 7:-0.648453 8:-0.627304 
-16384 1:1 2:0.175676 3:0.193277 4:-0.743363 5:-0.437577 6:-0.481506 7:-0.523371 8:-0.613353 
-16384 1:-1 2:0.189189 3:0.260504 4:-0.752212 5:-0.410661 6:-0.507734 7:-0.474654 8:-0.544594 
-16384 1:1 2:0.189189 3:0.12605 4:-0.725664 5:-0.496724 6:-0.504371 7:-0.640553 8:-0.694071 
-16384 1:-1 2:0.216216 3:0.210084 4:-0.752212 5:-0.488578 6:-0.533961 7:-0.545754 8:-0.65421 
-16384 1:-1 2:0.22973 3:0.243697 4:-0.769912 5:-0.46414 6:-0.564223 7:-0.482554 8:-0.59442 
-16384 1:-1 2:0.22973 3:0.243697 4:-0.734513 5:-0.399681 6:-0.560188 7:-0.390388 8:-0.600399 
-16384 1:1 2:0.22973 3:0.176471 4:-0.778761 5:-0.539933 6:-0.63618 7:-0.57867 8:-0.632287 
-16384 1:-1 2:0.243243 3:0.159664 4:-0.761062 5:-0.419515 6:-0.472091 7:-0.485188 8:-0.59442 
-16384 1:1 2:0.243243 3:0.260504 4:-0.752212 5:-0.493891 6:-0.61735 7:-0.581303 8:-0.573493 
-16384 1:1 2:0.243243 3:0.277311 4:-0.752212 5:-0.382327 6:-0.498991 7:-0.398288 8:-0.565521 
-16384 1:-1 2:0.324324 3:0.159664 4:-0.769912 5:-0.507349 6:-0.587761 7:-0.56287 8:-0.644245 
-16384 1:-1 2:0.337838 3:0.344538 4:-0.734513 5:-0.217284 6:-0.27505 7:-0.329822 8:-0.464873 
-16384 1:1 2:0.337838 3:0.310924 4:-0.752212 5:-0.248096 6:-0.293208 7:-0.423305 8:-0.524664 
-16384 1:1 2:0.337838 3:0.361345 4:-0.699115 5:-0.361431 6:-0.453262 7:-0.491771 8:-0.576482 
-16384 1:-1 2:0.364865 3:0.361345 4:-0.734513 5:-0.211263 6:-0.251513 7:-0.407505 8:-0.425012 
-16384 1:-1 2:0.364865 3:0.361345 4:-0.681416 5:-0.256596 6:-0.450572 7:-0.317972 8:-0.452915 
-16384 1:-1 2:0.364865 3:0.327731 4:-0.743363 5:-0.196033 6:-0.250168 7:-0.421988 8:-0.425012 
-16384 1:1 2:0.391892 3:0.394958 4:-0.716814 5:-0.147158 6:-0.357095 7:-0.362739 8:-0.387145 
-16384 1:-1 2:0.391892 3:0.344538 4:-0.743363 5:-0.248451 6:-0.308003 7:-0.357472 8:-0.504733 
-16384 1:-1 2:0.459459 3:0.428571 4:-0.716814 5:-0.11422 6:-0.214526 7:-0.317972 8:-0.345291 
-16384 1:1 2:0.5 3:0.445378 4:-0.725664 5:-0.0961573 6:-0.144586 7:-0.277156 8:-0.385152 
-16384 1:1 2:0.5 3:0.428571 4:-0.734513 5:-0.166637 6:-0.303968 7:-0.348255 8:-0.358246 
-16384 1:1 2:0.540541 3:0.563025 4:-0.690265 5:0.104303 6:-0.0477471 7:-0.0651745 8:-0.20578 
-16384 1:-1 2:0.540541 3:0.512605 4:-0.707965 5:0.0132814 6:-0.0813719 7:-0.190257 8:-0.333333 
-16384 1:-1 2:0.581081 3:0.411765 4:-0.681416 5:-0.0313441 6:-0.139206 7:-0.227123 8:-0.335326 
-16384 1:1 2:0.662162 3:0.579832 4:-0.690265 5:0.203117 6:0.108944 7:-0.0480579 8:-0.195815 
-16384 2:-0.0945946 3:-0.092437 4:-0.823009 5:-0.77156 6:-0.823806 7:-0.811718 8:-0.791729 
-16384 2:-0.0675676 3:-0.176471 4:-0.814159 5:-0.777581 6:-0.832549 7:-0.816985 8:-0.796712 
-16384 2:-0.0540541 3:-0.092437 4:-0.79646 5:-0.740393 6:-0.783457 7:-0.773535 8:-0.794718 
-16384 1:1 2:-0.0405405 3:-0.0588235 4:-0.787611 5:-0.720205 6:-0.734364 7:-0.773535 8:-0.796712 
-16384 2:-0.0135135 3:-0.0756303 4:-0.80531 5:-0.738976 6:-0.793544 7:-0.780118 8:-0.763827 
-16384 3:-0.0252101 4:-0.814159 5:-0.711705 6:-0.776059 7:-0.734036 8:-0.769806 
-16384 3:-0.0420168 4:-0.743363 5:-0.693997 6:-0.739744 7:-0.763002 8:-0.743896 
-16384 2:0.0135135 3:0.0420168 4:-0.778761 5:-0.674163 6:-0.71419 7:-0.741935 8:-0.740907 
-16384 2:0.0405405 3:-0.00840336 4:-0.79646 5:-0.707101 6:-0.759247 7:-0.743252 8:-0.768809 
-16384 1:1 2:0.0675676 3:0.0252101 4:-0.814159 5:-0.616079 6:-0.638198 7:-0.63397 8:-0.745889 
-16384 2:0.0675676 3:0.092437 4:-0.778761 5:-0.658226 6:-0.717552 7:-0.718236 8:-0.71998 
-16384 2:0.0810811 3:-0.00840336 4:-0.80531 5:-0.678059 6:-0.724277 7:-0.740619 8:-0.743896 
-16384 1:1 2:0.121622 3:0.378151 4:-0.778761 5:-0.631309 6:-0.685272 7:-0.658986 8:-0.721973 
-16384 2:0.148649 3:0.0756303 4:-0.752212 5:-0.612183 6:-0.667787 7:-0.706386 8:-0.687095 
-16384 2:0.148649 3:0.092437 4:-0.778761 5:-0.633788 6:-0.667115 7:-0.702436 8:-0.735924 
-16384 1:1 2:0.148649 3:0.12605 4:-0.778761 5:-0.632017 6:-0.667115 7:-0.693219 8:-0.741903 
-16384 1:-1 2:0.162162 3:0.12605 4:-0.778761 5:-0.615725 6:-0.670477 7:-0.60632 8:-0.72297 
-16384 2:0.175676 3:0.176471 4:-0.778761 5:-0.520099 6:-0.535306 7:-0.63397 8:-0.640259 
-16384 1:-1 2:0.175676 3:0.159664 4:-0.778761 5:-0.615371 6:-0.650303 7:-0.698486 8:-0.726956 
-16384 2:0.175676 3:0.092437 4:-0.79646 5:-0.636267 6:-0.712172 7:-0.702436 8:-0.672147 
-16384 2:0.202703 3:0.092437 4:-0.761062 5:-0.619267 6:-0.69267 7:-0.651086 8:-0.690085 
-16384 1:-1 2:0.202703 3:0.361345 4:-0.734513 5:-0.279617 6:-0.297915 7:-0.478604 8:-0.496761 
-16384 2:0.216216 3:0.159664 4:-0.769912 5:-0.544183 6:-0.564223 7:-0.673469 8:-0.664175 
-16384 2:0.22973 3:0.159664 4:-0.778761 5:-0.56437 6:-0.626093 7:-0.666886 8:-0.624315 
-16384 1:1 2:0.27027 3:0.12605 4:-0.761062 5:-0.446432 6:-0.433087 7:-0.523371 8:-0.692078 
-16384 1:-1 2:0.283784 3:0.210084 4:-0.761062 5:-0.424473 6:-0.427034 7:-0.512837 8:-0.65421 
-16384 1:-1 2:0.283784 3:0.260504 4:-0.734513 5:-0.40641 6:-0.470074 7:-0.487821 8:-0.558545 
-16384 1:1 2:0.310811 3:0.310924 4:-0.716814 5:-0.366389 6:-0.436449 7:-0.428571 8:-0.561535 
-16384 1:-1 2:0.310811 3:0.294118 4:-0.725664 5:-0.547724 6:-0.549428 7:-0.536537 8:-0.514699 
-16384 1:1 2:0.310811 3:0.210084 4:-0.743363 5:-0.39791 6:-0.422999 7:-0.504937 8:-0.59442 
-16384 1:1 2:0.324324 3:0.277311 4:-0.734513 5:-0.300159 6:-0.221923 7:-0.520737 8:-0.592427 
-16384 1:-1 2:0.337838 3:0.310924 4:-0.743363 5:-0.379848 6:-0.447209 7:-0.429888 8:-0.564524 
-16384 2:0.337838 3:0.294118 4:-0.734513 5:-0.466619 6:-0.540686 7:-0.579987 8:-0.556552 
-16384 1:-1 2:0.351351 3:0.361345 4:-0.743363 5:-0.296972 6:-0.37458 7:-0.398288 8:-0.474838 
-16384 1:1 2:0.364865 3:0.344538 4:-0.734513 5:-0.212325 6:-0.360457 7:-0.433838 8:-0.474838 
-16384 1:1 2:0.364865 3:0.327731 4:-0.743363 5:-0.291305 6:-0.265636 7:-0.481238 8:-0.54559 
-16384 1:1 2:0.378378 3:0.378151 4:-0.716814 5:-0.324597 6:-0.383322 7:-0.379855 8:-0.474838 
-16384 1:1 2:0.391892 3:0.394958 4:-0.734513 5:-0.296264 6:-0.354405 7:-0.390388 8:-0.524664 
-16384 1:1 2:0.418919 3:0.344538 4:-0.699115 5:-0.157429 6:-0.065232 7:-0.370639 8:-0.524664 
-16384 1:-1 2:0.418919 3:0.378151 4:-0.734513 5:-0.220471 6:-0.267653 7:-0.311389 8:-0.504733 
-16384 1:1 2:0.445946 3:0.445378 4:-0.716814 5:-0.282805 6:-0.286483 7:-0.443055 8:-0.521674 
-16384 1:1 2:0.472973 3:0.394958 4:-0.761062 5:-0.279263 6:-0.286483 7:-0.473338 8:-0.509716 
-16384 1:1 2:0.472973 3:0.327731 4:-0.646018 5:-0.39366 6:-0.425017 7:-0.599737 8:-0.523667 
-16384 1:-1 2:0.472973 3:0.428571 4:-0.716814 5:-0.213388 6:-0.243443 7:-0.357472 8:-0.44295 
-16384 1:1 2:0.486486 3:0.428571 4:-0.672566 5:-0.146804 6:-0.211836 7:-0.237656 8:-0.432985 
-16384 1:1 2:0.5 3:0.394958 4:-0.725664 5:-0.199221 6:-0.209146 7:-0.445688 8:-0.430992 
-16384 1:1 2:0.594595 3:0.579832 4:-0.716814 5:-0.0359483 6:-0.155346 7:-0.266623 8:-0.325361 
-16384 1:1 2:0.743243 3:0.714286 4:-0.743363 5:-0.160616 6:-0.071957 7:-0.489138 8:-0.467862 
-264.67631018954006 2:-0.702703 3:0.0756303 4:-0.787611 5:-0.672392 6:-0.737727 7:-0.726136 8:-0.704036 
-16384 2:-0.202703 3:-0.210084 4:-0.840708 5:-0.828227 6:-0.881641 7:-0.828835 8:-0.853513 
-16384 2:-0.135135 3:-0.159664 4:-0.814159 5:-0.800248 6:-0.848689 7:-0.844635 8:-0.814649 
-16384 2:-0.0945946 3:-0.0588235 4:-0.80531 5:-0.767664 6:-0.790182 7:-0.815668 8:-0.664175 
-16384 2:-0.0540541 3:-0.109244 4:-0.823009 5:-0.785019 6:-0.831876 7:-0.843318 8:-0.791729 
-16384 2:-0.027027 3:-0.12605 4:-0.80531 5:-0.740393 6:-0.784129 7:-0.813035 8:-0.763827 
-16384 2:0.027027 3:-0.0252101 4:-0.814159 5:-0.717726 6:-0.780767 7:-0.802502 8:-0.751868 
-16384 1:-1 2:0.027027 3:0.0420168 4:-0.79646 5:-0.696476 6:-0.753867 7:-0.716919 8:-0.754858 
-16384 1:-1 2:0.0405405 3:0.0420168 4:-0.778761 5:-0.662476 6:-0.724277 7:-0.726136 8:-0.721973 
-16384 2:0.0675676 3:0.0420168 4:-0.823009 5:-0.710289 6:-0.765972 7:-0.776169 8:-0.733931 
-16384 2:0.0675676 3:0.00840336 4:-0.681416 5:-0.661413 6:-0.72495 7:-0.724819 8:-0.703039 
-16384 2:0.0675676 3:0.00840336 4:-0.787611 5:-0.723039 6:-0.776732 7:-0.768269 8:-0.773792 
-16384 2:0.0810811 3:0.092437 4:-0.787611 5:-0.689038 6:-0.761264 7:-0.768269 8:-0.703039 
-16384 2:0.0810811 3:0.0252101 4:-0.80531 5:-0.652913 6:-0.717552 7:-0.711652 8:-0.704036 
-16384 2:0.0945946 3:0.00840336 4:-0.79646 5:-0.666726 6:-0.723605 7:-0.706386 8:-0.73991 
-16384 2:0.135135 3:0.00840336 4:-0.787611 5:-0.649726 6:-0.713517 7:-0.726136 8:-0.705032 
-16384 2:0.135135 3:0.092437 4:-0.769912 5:-0.638392 6:-0.707465 7:-0.695853 8:-0.684106 
-16384 1:1 2:0.135135 3:0.142857 4:-0.787611 5:-0.609704 6:-0.700067 7:-0.639236 8:-0.670154 
-16384 2:0.148649 3:0.0756303 4:-0.778761 5:-0.598017 6:-0.652993 7:-0.674786 8:-0.690085 
-16384 2:0.162162 3:0.176471 4:-0.769912 5:-0.57535 6:-0.595831 7:-0.711652 8:-0.644245 
-16384 2:0.162162 3:0.092437 4:-0.787611 5:-0.580662 6:-0.65232 7:-0.623436 8:-0.644245 
-16384 2:0.162162 3:0.142857 4:-0.814159 5:-0.611121 6:-0.667787 7:-0.730086 8:-0.662182 
-16384 2:0.243243 3:0.210084 4:-0.734513 5:-0.593058 6:-0.517821 7:-0.64582 8:-0.554559 
-16384 2:0.27027 3:0.277311 4:-0.761062 5:-0.454932 6:-0.501009 7:-0.611587 8:-0.550573 
-16384 2:0.27027 3:0.176471 4:-0.761062 5:-0.580308 6:-0.638198 7:-0.689269 8:-0.63428 
-16384 1:-1 2:0.324324 3:0.327731 4:-0.743363 5:-0.399681 6:-0.434432 7:-0.557604 8:-0.554559 
-16384 1:1 2:0.324324 3:0.310924 4:-0.734513 5:-0.437577 6:-0.512441 7:-0.516787 8:-0.566517 
-16384 2:0.337838 3:0.327731 4:-0.761062 5:-0.438994 6:-0.488231 7:-0.628703 8:-0.514699 
-16384 1:-1 2:0.364865 3:0.310924 4:-0.734513 5:-0.39366 6:-0.463349 7:-0.59052 8:-0.498754 
-16384 1:1 2:0.378378 3:0.327731 4:-0.681416 5:-0.435098 6:-0.549428 7:-0.512837 8:-0.530643 
-16384 1:1 2:0.0135135 3:-0.0588235 4:-0.778761 5:-0.684434 6:-0.710155 7:-0.669519 8:-0.783757 
-16384 2:0.0405405 3:0.00840336 4:-0.80531 5:-0.69258 6:-0.735709 7:-0.748519 8:-0.753861 
-16384 2:0.0675676 3:-0.00840336 4:-0.778761 5:-0.695768 6:-0.745797 7:-0.694536 8:-0.768809 
-16384 2:0.0675676 3:0.00840336 4:-0.787611 5:-0.740393 6:-0.831876 7:-0.781435 8:-0.730942 
-8647.3222234766235 1:1 2:0.0810811 3:0.0588235 4:-0.778761 5:-0.541704 6:-0.534633 7:-0.643186 8:-0.71998 
-16384 1:-1 2:0.0810811 3:0.0420168 4:-0.79646 5:-0.600496 6:-0.623403 7:-0.693219 8:-0.736921 
-16384 2:0.108108 3:0.092437 4:-0.787611 5:-0.666726 6:-0.72226 7:-0.718236 8:-0.710015 
-16384 1:1 2:0.108108 3:0.12605 4:-0.849558 5:-0.545599 6:-0.605245 7:-0.730086 8:-0.608371 
-16384 1:1 2:0.108108 3:0.0588235 4:-0.769912 5:-0.628829 6:-0.667115 7:-0.724819 8:-0.693074 
-16384 1:-1 2:0.135135 3:0.092437 4:-0.787611 5:-0.595537 6:-0.64425 7:-0.662936 8:-0.715994 
-16384 2:0.189189 3:0.142857 4:-0.778761 5:-0.607579 6:-0.63887 7:-0.748519 8:-0.664175 
-16384 1:1 2:0.189189 3:0.243697 4:-0.743363 5:-0.338056 6:-0.332885 7:-0.524687 8:-0.567514 
-16384 2:0.189189 3:0.159664 4:-0.778761 5:-0.602975 6:-0.665098 7:-0.673469 8:-0.664175 
-16384 1:1 2:0.202703 3:0.159664 4:-0.778761 5:-0.605454 6:-0.659718 7:-0.635286 8:-0.706029 
-16384 1:1 2:0.216216 3:0.159664 4:-0.752212 5:-0.491057 6:-0.505716 7:-0.619487 8:-0.6572 
-16384 1:1 2:0.22973 3:0.159664 4:-0.778761 5:-0.464849 6:-0.466039 7:-0.603687 8:-0.65421 
-16384 1:-1 2:0.283784 3:0.260504 4:-0.752212 5:-0.40641 6:-0.496974 7:-0.427255 8:-0.615346 
-16384 1:-1 2:0.310811 3:0.260504 4:-0.734513 5:-0.381973 6:-0.392065 7:-0.577354 8:-0.564524 
-16384 1:1 2:0.337838 3:0.310924 4:-0.734513 5:-0.30193 6:-0.32347 7:-0.456221 8:-0.506726 
-16384 1:1 2:0.351351 3:0.361345 4:-0.707965 5:-0.352931 6:-0.462677 7:-0.352205 8:-0.527653 
-16384 1:1 2:0.378378 3:0.344538 4:-0.734513 5:-0.35966 6:-0.450572 7:-0.395655 8:-0.537618 
-16384 1:1 2:0.391892 3:0.294118 4:-0.734513 5:-0.383389 6:-0.480834 7:-0.435155 8:-0.514699 
-16384 1:-1 2:0.391892 3:0.361345 4:-0.743363 5:-0.299805 6:-0.392065 7:-0.420671 8:-0.454908 
-16384 1:1 2:0.418919 3:0.344538 4:-0.725664 5:-0.332035 6:-0.414257 7:-0.452271 8:-0.504733 
-16384 2:0.459459 3:0.411765 4:-0.769912 5:-0.40464 6:-0.526564 7:-0.497038 8:-0.50274 
-16384 1:-1 2:0.472973 3:0.277311 4:-0.725664 5:-0.284576 6:-0.359785 7:-0.379855 8:-0.454908 
-16384 1:1 2:0.513514 3:0.529412 4:-0.672566 5:-0.074907 6:-0.26967 7:-0.163924 8:-0.251619 
-16384 1:1 2:0.554054 3:0.445378 4:-0.752212 5:-0.169116 6:-0.362475 7:-0.360105 8:-0.574489 
-16384 2:-0.175676 3:-0.226891 4:-0.831858 5:-0.82929 6:-0.880968 7:-0.826201 8:-0.853513 
-16384 2:-0.0540541 3:-0.092437 4:-0.80531 5:-0.776873 6:-0.819771 7:-0.874918 8:-0.823617 
-16384 2:-0.027027 3:-0.0588235 4:-0.823009 5:-0.768018 6:-0.827841 7:-0.816985 8:-0.783757 
-16384 2:-0.027027 3:-0.092437 4:-0.80531 5:-0.741456 6:-0.786819 7:-0.790652 8:-0.793722 
-16384 2:0.0135135 3:-0.0420168 4:-0.831858 5:-0.77156 6:-0.815064 7:-0.832785 8:-0.793722 
-16384 2:0.0135135 3:-0.0588235 4:-0.80531 5:-0.704268 6:-0.757902 7:-0.777485 8:-0.734928 
-16384 2:0.0405405 3:-0.00840336 4:-0.80531 5:-0.71808 6:-0.764627 7:-0.782752 8:-0.76283 
-16384 2:0.0405405 3:0.00840336 4:-0.80531 5:-0.700018 6:-0.73033 7:-0.788018 8:-0.743896 
-16384 2:0.0675676 3:0.00840336 4:-0.778761 5:-0.647955 6:-0.718897 7:-0.741935 8:-0.694071 
-16384 2:0.0810811 3:0.0252101 4:-0.743363 5:-0.553391 6:-0.621385 7:-0.640553 8:-0.624315 
-16384 1:1 2:0.0810811 3:0.0252101 4:-0.823009 5:-0.697893 6:-0.737054 7:-0.740619 8:-0.779771 
-16384 2:0.0810811 3:0.0252101 4:-0.778761 5:-0.653976 6:-0.725622 7:-0.65767 8:-0.753861 
-16384 2:0.0945946 3:0.0588235 4:-0.787611 5:-0.621746 6:-0.663753 7:-0.701119 8:-0.704036 
-16384 1:1 2:0.0945946 3:0.00840336 4:-0.716814 5:-0.672747 6:-0.704102 7:-0.722186 8:-0.526657 
-16384 2:0.108108 3:0.0756303 4:-0.769912 5:-0.574641 6:-0.60659 7:-0.662936 8:-0.684106 
-16384 2:0.121622 3:0.0756303 4:-0.79646 5:-0.674517 6:-0.726967 7:-0.752469 8:-0.717987 
-16384 2:0.121622 3:0.159664 4:-0.761062 5:-0.559412 6:-0.593141 7:-0.662936 8:-0.666168 
-16384 2:0.135135 3:0.0588235 4:-0.778761 5:-0.667434 6:-0.72226 7:-0.761685 8:-0.704036 
-16384 2:0.135135 3:0.159664 4:-0.814159 5:-0.574996 6:-0.664425 7:-0.668203 8:-0.624315 
-16384 2:0.148649 3:0.159664 4:-0.787611 5:-0.565079 6:-0.650303 7:-0.624753 8:-0.617339 
-16384 2:0.148649 3:0.12605 4:-0.787611 5:-0.5796 6:-0.67115 7:-0.61422 8:-0.658196 
-16384 2:0.175676 3:0.142857 4:-0.769912 5:-0.574641 6:-0.623403 7:-0.624753 8:-0.68012 
-16384 1:-1 2:0.189189 3:0.0756303 4:-0.80531 5:-0.571808 6:-0.597176 7:-0.656353 8:-0.704036 
-16384 2:0.189189 3:0.142857 4:-0.778761 5:-0.531433 6:-0.570948 7:-0.632653 8:-0.664175 
-16384 2:0.189189 3:0.12605 4:-0.778761 5:-0.597308 6:-0.681237 7:-0.668203 8:-0.63428 
-16384 2:0.202703 3:0.12605 4:-0.769912 5:-0.608642 6:-0.6846 7:-0.712969 8:-0.625311 
-16384 1:1 2:0.216216 3:0.210084 4:-0.743363 5:-0.402869 6:-0.527236 7:-0.57077 8:-0.429995 
-16384 2:0.216216 3:0.092437 4:-0.761062 5:-0.565787 6:-0.650303 7:-0.58262 8:-0.65421 
-16384 2:0.216216 3:0.159664 4:-0.752212 5:-0.538162 6:-0.591123 7:-0.579987 8:-0.666168 
-16384 2:0.22973 3:0.226891 4:-0.787611 5:-0.578891 6:-0.6577 7:-0.63002 8:-0.650224 
-16384 2:0.243243 3:0.159664 4:-0.769912 5:-0.536037 6:-0.62004 7:-0.57472 8:-0.65421 
-16384 2:0.256757 3:0.243697 4:-0.761062 5:-0.515495 6:-0.533961 7:-0.59447 8:-0.578475 
-16384 2:0.27027 3:0.0756303 4:-0.787611 5:-0.616788 6:-0.68191 7:-0.697169 8:-0.659193 
-16384 2:0.27027 3:0.226891 4:-0.778761 5:-0.493536 6:-0.519839 7:-0.706386 8:-0.564524 
-16384 2:0.283784 3:0.210084 4:-0.743363 5:-0.447848 6:-0.499664 7:-0.579987 8:-0.561535 
-16384 2:0.283784 3:0.243697 4:-0.734513 5:-0.458474 6:-0.545393 7:-0.537854 8:-0.584454 
-16384 2:0.297297 3:0.277311 4:-0.752212 5:-0.459536 6:-0.470746 7:-0.60632 8:-0.592427 
-16384 2:0.310811 3:0.294118 4:-0.769912 5:-0.488932 6:-0.531944 7:-0.608953 8:-0.604385 
-16384 1:-1 2:0.337838 3:0.327731 4:-0.761062 5:-0.448557 6:-0.551446 7:-0.514154 8:-0.584454 
-16384 1:1 2:0.351351 3:0.344538 4:-0.707965 5:-0.387285 6:-0.494956 7:-0.526004 8:-0.468859 
-16384 1:-1 2:0.351351 3:0.378151 4:-0.654867 5:-0.295555 6:-0.440484 7:-0.350889 8:-0.0662681 
-16384 1:-1 2:0.351351 3:0.277311 4:-0.734513 5:-0.271472 6:-0.381977 7:-0.427255 8:-0.285501 
-16384 1:-1 2:0.364865 3:0.277311 4:-0.734513 5:-0.410661 6:-0.425689 7:-0.60237 8:-0.544594 
-16384 1:-1 2:0.405405 3:0.277311 4:-0.734513 5:-0.36391 6:-0.439812 7:-0.553654 8:-0.474838 
-16384 2:0.405405 3:0.361345 4:-0.734513 5:-0.411015 6:-0.494284 7:-0.494404 8:-0.534629 
-16384 1:-1 2:0.418919 3:0.361345 4:-0.725664 5:-0.311847 6:-0.427034 7:-0.462804 8:-0.405082 
-16384 2:0.418919 3:0.428571 4:-0.699115 5:-0.351514 6:-0.490249 7:-0.415405 8:-0.425012 
-16384 1:1 2:0.432432 3:0.411765 4:-0.743363 5:-0.375243 6:-0.485541 7:-0.499671 8:-0.464873 
-16384 1:-1 2:0.432432 3:0.428571 4:-0.752212 5:-0.299451 6:-0.364492 7:-0.383805 8:-0.524664 
-16384 1:-1 2:0.445946 3:0.445378 4:-0.681416 5:-0.0950947 6:-0.229993 7:-0.249506 8:-0.295466 
-16384 1:-1 2:0.5 3:0.495798 4:-0.681416 5:-0.153887 6:-0.31002 7:-0.389072 8:-0.206776 
-16384 1:-1 2:0.743243 3:0.579832 4:-0.681416 5:0.0221356 6:-0.152656 7:-0.154707 8:-0.136024 
-16384 1:-1 2:-0.189189 3:-0.277311 4:-0.761062 5:-0.578537 6:-0.635508 7:-0.656353 8:-0.669158 
-16384 2:-0.027027 3:-0.176471 4:-0.787611 5:-0.578891 6:-0.652993 7:-0.635286 8:-0.675137 
-16384 1:1 3:-0.109244 4:-0.787611 5:-0.708164 6:-0.733692 7:-0.764319 8:-0.769806 
-16384 2:0.108108 3:0.0420168 4:-0.814159 5:-0.632725 6:-0.739072 7:-0.677419 8:-0.640259 
-16384 1:-1 2:0.121622 3:0.00840336 4:-0.716814 5:-0.378431 6:-0.532616 7:-0.435155 8:-0.43996 
-16384 1:1 2:0.189189 3:0.142857 4:-0.761062 5:-0.288118 6:-0.36651 7:-0.344305 8:-0.500747 
-16384 1:1 2:0.216216 3:0.092437 4:-0.778761 5:-0.540995 6:-0.593813 7:-0.593153 8:-0.686099 
-16384 1:1 2:0.22973 3:0.193277 4:-0.752212 5:-0.466974 6:-0.531271 7:-0.549704 8:-0.583458 
-16384 1:-1 2:0.243243 3:0.243697 4:-0.761062 5:-0.455286 6:-0.494956 7:-0.523371 8:-0.645242 
-16384 2:0.243243 3:0.109244 4:-0.681416 5:-0.23393 6:-0.334902 7:-0.396972 8:-0.39711 
-16384 2:0.27027 3:0.226891 4:-0.707965 5:-0.368514 6:-0.431742 7:-0.423305 8:-0.54858 
-16384 2:0.378378 3:0.327731 4:-0.734513 5:-0.369931 6:-0.466711 7:-0.465438 8:-0.498754 
-16384 1:-1 2:0.527027 3:0.411765 4:-0.752212 5:-0.241721 6:-0.342972 7:-0.396972 8:-0.385152 
-16384 2:-0.108108 3:-0.176471 4:-0.840708 5:-0.810873 6:-0.862811 7:-0.824885 8:-0.783757 
-16384 2:-0.0945946 3:-0.12605 4:-0.831858 5:-0.802727 6:-0.848016 7:-0.910467 8:-0.783757 
-16384 2:-0.0945946 3:-0.0588235 4:-0.814159 5:-0.76731 6:-0.812374 7:-0.832785 8:-0.793722 
-16384 2:-0.0810811 3:-0.142857 4:-0.823009 5:-0.802727 6:-0.848016 7:-0.852535 8:-0.80867 
-16384 2:-0.0810811 3:-0.142857 4:-0.831858 5:-0.781123 6:-0.850034 7:-0.836735 8:-0.773792 
-16384 2:-0.0405405 3:-0.0420168 4:-0.823009 5:-0.760227 6:-0.813719 7:-0.826201 8:-0.763827 
-16384 2:-0.027027 3:-0.0588235 4:-0.823009 5:-0.77156 6:-0.819771 7:-0.794602 8:-0.807673 
-16384 2:-0.027027 3:-0.0756303 4:-0.80531 5:-0.732247 6:-0.797579 7:-0.752469 8:-0.783757 
-16384 2:-0.027027 3:-0.0252101 4:-0.787611 5:-0.773685 6:-0.826496 7:-0.853851 8:-0.766816 
-16384 3:-0.0756303 4:-0.80531 5:-0.747831 6:-0.796234 7:-0.824885 8:-0.766816 
-16384 2:0.0540541 3:0.0588235 4:-0.80531 5:-0.686205 6:-0.781439 7:-0.748519 8:-0.672147 
-16384 2:0.0675676 3:0.0756303 4:-0.787611 5:-0.656455 6:-0.737727 7:-0.740619 8:-0.733931 
-16384 2:0.108108 3:0.109244 4:-0.769912 5:-0.599079 6:-0.664425 7:-0.532587 8:-0.696064 
-16384 2:0.108108 3:0.0252101 4:-0.787611 5:-0.636267 6:-0.669805 7:-0.731402 8:-0.710015 
-16384 2:0.135135 3:0.092437 4:-0.761062 5:-0.640517 6:-0.723605 7:-0.694536 8:-0.674141 
-16384 2:0.135135 3:0.092437 4:-0.743363 5:-0.647246 6:-0.725622 7:-0.611587 8:-0.703039 
-16384 2:0.135135 3:0.0756303 4:-0.752212 5:-0.651496 6:-0.757902 7:-0.744569 8:-0.622322 
-16384 2:0.162162 3:0.159664 4:-0.743363 5:-0.502391 6:-0.552118 7:-0.62607 8:-0.590433 
-16384 1:1 2:0.189189 3:0.109244 4:-0.80531 5:-0.591642 6:-0.661063 7:-0.579987 8:-0.723966 
-16384 2:0.202703 3:0.193277 4:-0.80531 5:-0.634142 6:-0.710155 7:-0.760369 8:-0.636273 
-16384 2:0.216216 3:0.176471 4:-0.743363 5:-0.508057 6:-0.591796 7:-0.597103 8:-0.584454 
-16384 2:0.22973 3:0.260504 4:-0.752212 5:-0.52187 6:-0.600538 7:-0.747202 8:-0.544594 
-16384 2:0.256757 3:0.12605 4:-0.778761 5:-0.55835 6:-0.661735 7:-0.585253 8:-0.624315 
-16384 2:0.283784 3:0.327731 4:-0.769912 5:-0.431911 6:-0.547411 7:-0.631336 8:-0.544594 
-16384 1:1 2:0.297297 3:0.277311 4:-0.752212 5:-0.470515 6:-0.542703 7:-0.568137 8:-0.576482 
-16384 1:1 2:0.297297 3:0.193277 4:-0.778761 5:-0.577121 6:-0.685945 7:-0.615537 8:-0.616343 
-16384 1:1 2:0.297297 3:0.159664 4:-0.769912 5:-0.500266 6:-0.554808 7:-0.583937 8:-0.644245 
-16384 1:1 2:0.324324 3:0.210084 4:-0.778761 5:-0.528953 6:-0.595158 7:-0.59447 8:-0.63428 
-16384 1:1 2:0.445946 3:0.428571 4:-0.752212 5:-0.271117 6:-0.412912 7:-0.312706 8:-0.464873 
-16384 1:-1 2:0.445946 3:0.361345 4:-0.725664 5:-0.323535 6:-0.429052 7:-0.481238 8:-0.474838 
-16384 2:-0.0810811 3:-0.092437 4:-0.80531 5:-0.777581 6:-0.815064 7:-0.791968 8:-0.818635 
-16384 2:0.0405405 3:-0.00840336 4:-0.80531 5:-0.670267 6:-0.715535 7:-0.740619 8:-0.728949 
-16384 1:-1 2:-0.121622 3:-0.159664 4:-0.716814 5:-0.740747 6:-0.768662 7:-0.815668 8:-0.793722 
-16384 3:-0.109244 4:-0.787611 5:-0.733664 6:-0.796907 7:-0.784068 8:-0.763827 
-16384 1:1 2:0.0135135 3:-0.00840336 4:-0.769912 5:-0.671684 6:-0.72226 7:-0.726136 8:-0.733931 
-1614.7695899656046 1:-1 2:0.027027 3:0.00840336 4:1 5:-0.580662 6:-0.554808 7:-0.695853 8:-0.736921 
-16384 1:1 2:0.0405405 3:-0.0252101 4:-0.787611 5:-0.651851 6:-0.67384 7:-0.691903 8:-0.73991 
-16384 1:-1 2:0.0810811 3:0.092437 4:-0.752212 5:-0.51337 6:-0.575656 7:-0.655036 8:-0.613353 
-16384 1:1 2:0.108108 3:0.12605 4:-0.761062 5:-0.56437 6:-0.665098 7:-0.647136 8:-0.67713 
-16384 1:-1 2:0.148649 3:0.092437 4:-0.752212 5:-0.551266 6:-0.628783 7:-0.624753 8:-0.647235 
-16384 1:1 2:0.162162 3:0.109244 4:-0.769912 5:-0.545599 6:-0.579691 7:-0.608953 8:-0.701046 
-16384 1:1 2:0.216216 3:0.109244 4:-0.823009 5:-0.6391 6:-0.670477 7:-0.736669 8:-0.713004 
-16384 1:1 2:0.243243 3:0.226891 4:-0.778761 5:-0.478661 6:-0.523874 7:-0.502304 8:-0.645242 
-16384 1:-1 2:0.243243 3:0.226891 4:-0.769912 5:-0.506287 6:-0.581036 7:-0.589203 8:-0.597409 
-16384 1:1 2:0.364865 3:0.327731 4:-0.787611 5:-0.386223 6:-0.439139 7:-0.612903 8:-0.483807 
-16384 1:-1 2:0.364865 3:0.277311 4:-0.734513 5:-0.407119 6:-0.532616 7:-0.456221 8:-0.620329 
-16384 1:-1 2:0.445946 3:0.260504 4:-0.752212 5:-0.357535 6:-0.412239 7:-0.474654 8:-0.564524 
-16384 1:1 2:0.445946 3:0.428571 4:-0.707965 5:-0.120595 6:-0.251513 7:-0.296906 8:-0.261584 
-16384 1:1 2:0.554054 3:0.495798 4:-0.752212 5:-0.124491 6:-0.172159 7:-0.381172 8:-0.365222 
-16384 1:-1 2:0.162162 3:0.12605 4:-0.79646 5:-0.533912 6:-0.591796 7:-0.591837 8:-0.65421 
-16384 2:-0.108108 3:-0.159664 4:-0.840708 5:-0.80131 6:-0.848016 7:-0.849901 8:-0.813652 
-16384 1:1 2:-0.0810811 3:-0.176471 4:-0.823009 5:-0.763768 6:-0.793544 7:-0.820935 8:-0.813652 
-16384 1:1 2:-0.0540541 3:-0.0756303 4:-0.858407 5:-0.745706 6:-0.821116 7:-0.784068 8:-0.753861 
-16384 1:1 2:0.0675676 3:-0.00840336 4:-0.823009 5:-0.663184 6:-0.747814 7:-0.768269 8:-0.65421 
-16384 1:1 2:0.216216 3:0.176471 4:-0.769912 5:-0.492474 6:-0.562206 7:-0.481238 8:-0.65421 
-16384 2:-0.162162 3:-0.210084 4:-0.840708 5:-0.837082 6:-0.886348 7:-0.870968 8:-0.843548 
-16384 1:-1 2:0.0945946 3:0.092437 4:-0.787611 5:-0.570746 6:-0.637525 7:-0.631336 8:-0.63428 
-16384 1:1 2:-0.0540541 3:-0.092437 4:-0.823009 5:-0.768018 6:-0.817754 7:-0.810402 8:-0.783757 
-10445.25862641023 1:-1 2:-0.418919 3:-0.478992 4:-0.867257 5:-0.806623 6:-0.849361 7:-0.823568 8:-0.933234 
-16384 1:1 2:-0.162162 3:-0.193277 4:-0.831858 5:-0.764123 6:-0.803631 7:-0.753785 8:-0.823617 
-16384 1:1 2:0.0675676 3:0.0756303 4:-0.79646 5:-0.699309 6:-0.774714 7:-0.802502 8:-0.704036 
-16384 1:-1 2:-0.0135135 3:-0.0756303 4:-0.79646 5:-0.717726 6:-0.809011 7:-0.703752 8:-0.763827 
-16384 1:1 2:-0.0810811 3:-0.142857 4:-0.840708 5:-0.77156 6:-0.825824 7:-0.807768 8:-0.773792 
-16384 1:-1 2:-0.121622 3:-0.176471 4:-0.79646 5:-0.787144 6:-0.821789 7:-0.878868 8:-0.816642 
-16384 1:1 2:-0.189189 3:-0.159664 4:-0.840708 5:-0.77156 6:-0.813719 7:-0.852535 8:-0.813652 
-16384 1:-1 2:-0.202703 3:-0.260504 4:-0.849558 5:-0.831061 6:-0.861466 7:-0.860434 8:-0.863478 
-16384 1:1 2:0.135135 3:0.159664 4:-0.725664 5:-0.428723 6:-0.685945 7:-0.697169 8:-0.305431 
-16384 1:1 2:-0.0675676 3:-0.0252101 4:-0.814159 5:-0.69683 6:-0.765972 7:-0.748519 8:-0.743896 
-16384 1:-1 2:-0.418919 3:-0.428571 4:-0.867257 5:-0.902249 6:-0.932078 7:-0.939434 8:-0.923269 
-16384 1:1 2:-0.0675676 3:-0.0420168 4:-0.79646 5:-0.702851 6:-0.765972 7:-0.756419 8:-0.733931 
-16384 1:-1 2:-0.0405405 3:-0.092437 4:-0.787611 5:-0.686205 6:-0.779422 7:-0.739302 8:-0.694071 
-16384 1:-1 2:0.243243 3:0.361345 4:-0.743363 5:-0.443598 6:-0.544721 7:-0.473338 8:-0.604385 
-16384 2:-0.243243 3:-0.243697 4:-0.80531 5:-0.843103 6:-0.891728 7:-0.863068 8:-0.843548 
-16384 1:1 2:-0.202703 3:-0.243697 4:-0.831858 5:-0.843811 6:-0.893073 7:-0.867018 8:-0.853513 
-16384 1:-1 2:0.0405405 3:0.0252101 4:-0.79646 5:-0.664601 6:-0.718225 7:-0.724819 8:-0.684106 
-16384 1:-1 2:0.0810811 3:0.092437 4:-0.761062 5:-0.657163 6:-0.767989 7:-0.816985 8:-0.63428 
-16384 1:1 2:-0.22973 3:-0.277311 4:-0.840708 5:-0.843811 6:-0.889711 7:-0.861751 8:-0.853513 
-16384 1:1 2:0.202703 3:0.092437 4:-0.761062 5:-0.588808 6:-0.664425 7:-0.589203 8:-0.65421 
-16384 1:1 2:-0.0405405 3:-0.0588235 4:-0.79646 5:-0.71383 6:-0.778077 7:-0.755102 8:-0.733931 
-16384 2:0.108108 3:0.210084 4:-0.752212 5:-0.597308 6:-0.665098 7:-0.648453 8:-0.63428 
-16384 1:-1 2:-0.162162 3:-0.159664 4:-0.814159 5:-0.766602 6:-0.817754 7:-0.805135 8:-0.803687 
-16384 1:1 2:0.0810811 3:0.0252101 4:-0.787611 5:-0.591996 6:-0.621385 7:-0.685319 8:-0.664175 
-16384 2:-0.0810811 3:-0.092437 4:-0.823009 5:-0.728706 6:-0.776732 7:-0.790652 8:-0.753861 
-16384 2:0.135135 3:0.109244 4:-0.778761 5:-0.587037 6:-0.6308 7:-0.676103 8:-0.674141 
-16384 1:1 2:-0.256757 3:-0.294118 4:-0.80531 5:-0.791394 6:-0.817754 7:-0.835418 8:-0.833582 
-16384 2:-0.135135 3:-0.092437 4:-0.814159 5:-0.784664 6:-0.852051 7:-0.807768 8:-0.813652 
-16384 2:-0.0675676 3:-0.092437 4:-0.79646 5:-0.750664 6:-0.782784 7:-0.832785 8:-0.793722 
-16384 1:-1 2:-0.0405405 3:-0.0420168 4:-0.80531 5:-0.730831 6:-0.794217 7:-0.749835 8:-0.78575 
-16384 1:-1 2:0.527027 3:0.495798 4:-0.734513 5:-0.243138 6:-0.502354 7:-0.289006 8:-0.285501 
-16384 1:1 2:-0.364865 3:-0.361345 4:-0.831858 5:-0.895166 6:-0.930733 7:-0.911784 8:-0.907324 
-16384 1:-1 2:-0.256757 3:-0.294118 4:-0.840708 5:-0.870019 6:-0.901143 7:-0.892034 8:-0.883408 
-16384 1:1 2:-0.0135135 3:-0.092437 4:-0.858407 5:-0.708872 6:-0.807666 7:-0.734036 8:-0.743896 
-16384 1:-1 2:-0.202703 3:-0.260504 4:-0.858407 5:-0.840623 6:-0.876261 7:-0.836735 8:-0.863478 
-16384 1:-1 2:0.0675676 3:0.00840336 4:-0.681416 5:-0.689038 6:-0.796234 7:-0.694536 8:-0.733931 
-16384 1:1 2:-0.148649 3:-0.226891 4:-0.831858 5:-0.809456 6:-0.853396 7:-0.843318 8:-0.843548 
-16384 1:1 2:-0.0135135 3:-0.092437 4:-0.79646 5:-0.725164 6:-0.782112 7:-0.772219 8:-0.777778 
-16384 2:-0.364865 3:-0.378151 4:-0.814159 5:-0.79706 6:-0.842636 7:-0.830151 8:-0.837569 
-16384 2:-0.0810811 3:-0.12605 4:-0.814159 5:-0.767664 6:-0.812374 7:-0.815668 8:-0.813652 
-16384 1:1 2:0.0540541 3:0.0756303 4:-0.80531 5:-0.647246 6:-0.718897 7:-0.703752 8:-0.703039 
-16384 1:-1 2:0.0540541 3:-0.00840336 4:-0.761062 5:-0.557641 6:-0.652993 7:-0.620803 8:-0.65421 
-16384 2:0.0675676 3:0.0588235 4:-0.80531 5:-0.607933 6:-0.665098 7:-0.698486 8:-0.678127 
-16384 1:-1 2:0.0675676 3:0.0756303 4:-0.787611 5:-0.57535 6:-0.629455 7:-0.61817 8:-0.733931 
-16384 1:1 2:0.0945946 3:0.0588235 4:-0.761062 5:-0.5541 6:-0.537996 7:-0.734036 8:-0.682113 
-16384 1:1 2:0.148649 3:0.159664 4:-0.769912 5:-0.454932 6:-0.503699 7:-0.579987 8:-0.582461 
-16384 2:0.162162 3:0.12605 4:-0.672566 5:-0.567558 6:-0.642233 7:-0.627386 8:-0.660189 
-16384 1:-1 2:0.418919 3:0.495798 4:-0.725664 5:-0.0579069 6:-0.162744 7:-0.254773 8:-0.305431 
-16384 2:-0.283784 3:-0.294118 4:-0.876106 5:-0.870374 6:-0.917283 7:-0.897301 8:-0.863478 
-16384 2:-0.0810811 3:-0.092437 4:-0.823009 5:-0.765185 6:-0.806994 7:-0.813035 8:-0.813652 
-5454.9107122696514 2:-0.0135135 3:-0.0588235 4:-0.80531 5:-0.726226 6:-0.765972 7:-0.781435 8:-0.781764 
-16384 2:-0.0135135 3:0.00840336 4:-0.787611 5:-0.650788 6:-0.690652 7:-0.711652 8:-0.753861 
-16384 2:0.0135135 3:-0.00840336 4:-0.778761 5:-0.663184 6:-0.70074 7:-0.766952 8:-0.767813 
-16384 2:0.0135135 3:-0.00840336 4:-0.787611 5:-0.669913 6:-0.731675 7:-0.720869 8:-0.738914 
-16384 1:-1 2:0.027027 3:-0.00840336 4:-0.787611 5:-0.678767 6:-0.739744 7:-0.726136 8:-0.728949 
-16384 1:-1 2:0.0405405 3:-0.00840336 4:-0.79646 5:-0.67558 6:-0.728985 7:-0.707702 8:-0.770802 
-16384 2:0.0810811 3:0.00840336 4:-0.814159 5:-0.669913 6:-0.731002 7:-0.707702 8:-0.763827 
-16384 1:1 2:0.0945946 3:0.0588235 4:-0.823009 5:-0.637684 6:-0.674512 7:-0.734036 8:-0.733931 
-16384 1:1 2:0.148649 3:0.0756303 4:-0.743363 5:-0.561183 6:-0.632818 7:-0.564187 8:-0.707025 
-16384 2:0.148649 3:0.092437 4:-0.80531 5:-0.651496 6:-0.708137 7:-0.764319 8:-0.738914 
-16384 2:0.162162 3:0.109244 4:-0.787611 5:-0.576058 6:-0.679892 7:-0.627386 8:-0.63428 
-16384 1:1 2:0.216216 3:0.210084 4:-0.761062 5:-0.43864 6:-0.471419 7:-0.503621 8:-0.600399 
-16384 1:1 2:0.216216 3:0.243697 4:-0.778761 5:-0.426244 6:-0.458642 7:-0.552337 8:-0.61435 
-16384 1:-1 2:0.22973 3:0.226891 4:-0.699115 5:-0.414911 6:-0.449899 7:-0.453588 8:-0.703039 
-16384 1:1 2:0.22973 3:0.193277 4:-0.752212 5:-0.519037 6:-0.585071 7:-0.628703 8:-0.63727 
-16384 1:-1 2:0.22973 3:0.176471 4:-0.734513 5:-0.371702 6:-0.455952 7:-0.402238 8:-0.574489 
-16384 1:-1 2:0.283784 3:0.243697 4:-0.778761 5:-0.318576 6:-0.264963 7:-0.58262 8:-0.574489 
-16384 1:-1 2:0.297297 3:0.243697 4:-0.752212 5:-0.319285 6:-0.409549 7:-0.411455 8:-0.524664 
-16384 1:-1 2:0.337838 3:0.277311 4:-0.752212 5:-0.393306 6:-0.476126 7:-0.485188 8:-0.54559 
-16384 1:1 2:0.351351 3:0.327731 4:-0.725664 5:-0.32991 6:-0.424344 7:-0.458855 8:-0.486796 
-16384 1:-1 2:0.364865 3:0.310924 4:-0.743363 5:-0.37241 6:-0.449899 7:-0.523371 8:-0.519681 
-16384 1:-1 2:0.378378 3:0.327731 4:-0.716814 5:-0.360723 6:-0.456624 7:-0.418038 8:-0.537618 
-16384 1:1 2:0.391892 3:0.378151 4:-0.752212 5:-0.260492 6:-0.369872 7:-0.308756 8:-0.478824 
-16384 1:-1 2:0.418919 3:0.361345 4:-0.743363 5:-0.340889 6:-0.465367 7:-0.410138 8:-0.508719 
-16384 1:-1 2:0.418919 3:0.361345 4:-0.734513 5:-0.126616 6:-0.190989 7:-0.279789 8:-0.425012 
-16384 1:1 2:0.445946 3:0.428571 4:-0.734513 5:-0.187179 6:-0.242771 7:-0.279789 8:-0.476831 
-16384 1:1 2:0.459459 3:0.394958 4:-0.725664 5:-0.151408 6:-0.317418 7:-0.158657 8:-0.421026 
-16384 1:-1 2:0.486486 3:0.462185 4:-0.690265 5:-0.216929 6:-0.398117 7:-0.431205 8:-0.286497 
-16384 1:1 2:0.5 3:0.428571 4:-0.707965 5:-0.0904905 6:-0.188971 7:-0.287689 8:-0.305431 
-16384 1:1 2:0.662162 3:0.630252 4:-0.672566 5:0.209846 6:0.0376597 7:0.0138249 8:-0.141006 
-16384 2:-0.0540541 3:-0.0756303 4:-0.79646 5:-0.770143 6:-0.824479 7:-0.798552 8:-0.797708 
-16384 2:-0.0135135 3:-0.0588235 4:-0.79646 5:-0.702851 6:-0.768662 7:-0.799868 8:-0.777778 
-16384 2:0.0405405 3:-0.0252101 4:-0.80531 5:-0.735435 6:-0.796234 7:-0.848585 8:-0.753861 
-16384 2:0.0405405 3:0.0588235 4:-0.787611 5:-0.623517 6:-0.645595 7:-0.716919 8:-0.734928 
-16384 2:0.0810811 3:0.0756303 4:-0.79646 5:-0.632725 6:-0.687962 7:-0.687953 8:-0.713004 
-16384 2:0.108108 3:0.0756303 4:-0.769912 5:-0.60935 6:-0.643578 7:-0.706386 8:-0.690085 
-16384 1:1 2:0.121622 3:0.092437 4:-0.80531 5:-0.608996 6:-0.60659 7:-0.736669 8:-0.704036 
-16384 2:0.135135 3:0.092437 4:-0.787611 5:-0.638746 6:-0.687962 7:-0.684003 8:-0.731938 
-16384 2:0.148649 3:0.12605 4:-0.778761 5:-0.588454 6:-0.605918 7:-0.65372 8:-0.683109 
-16384 1:1 2:0.162162 3:0.159664 4:-0.761062 5:-0.489286 6:-0.494284 7:-0.608953 8:-0.648231 
-16384 2:0.175676 3:0.142857 4:-0.725664 5:-0.619267 6:-0.669805 7:-0.715602 8:-0.670154 
-16384 2:0.175676 3:0.109244 4:-0.734513 5:-0.558704 6:-0.585071 7:-0.687953 8:-0.659193 
-16384 1:1 2:0.27027 3:0.226891 4:-0.743363 5:-0.450328 6:-0.497646 7:-0.59447 8:-0.59442 
-16384 1:1 2:0.27027 3:0.226891 4:-0.787611 5:-0.444307 6:-0.459314 7:-0.514154 8:-0.664175 
-16384 2:0.283784 3:0.226891 4:-0.769912 5:-0.550912 6:-0.605918 7:-0.62212 8:-0.653214 
-16384 1:-1 2:0.283784 3:0.294118 4:-0.761062 5:-0.403931 6:-0.417619 7:-0.475971 8:-0.63428 
-16384 2:0.297297 3:0.243697 4:-0.769912 5:-0.542412 6:-0.62004 7:-0.651086 8:-0.583458 
-16384 1:-1 2:0.351351 3:0.428571 4:-0.734513 5:-0.366035 6:-0.431742 7:-0.499671 8:-0.508719 
-16384 1:1 2:0.364865 3:0.344538 4:-0.769912 5:-0.39791 6:-0.449899 7:-0.54707 8:-0.554559 
-16384 1:-1 2:0.378378 3:0.327731 4:-0.734513 5:-0.336993 6:-0.373235 7:-0.466754 8:-0.554559 
-16384 1:-1 2:0.378378 3:0.277311 4:-0.752212 5:-0.508766 6:-0.586416 7:-0.661619 8:-0.555556 
-16384 1:1 2:0.391892 3:0.394958 4:-0.734513 5:-0.391535 6:-0.445864 7:-0.569454 8:-0.506726 
-16384 1:-1 2:0.391892 3:0.361345 4:-0.716814 5:-0.28493 6:-0.402824 7:-0.312706 8:-0.491779 
-16384 1:-1 2:0.405405 3:0.378151 4:-0.734513 5:-0.221888 6:-0.273033 7:-0.564187 8:-0.474838 
-16384 1:1 2:0.459459 3:0.327731 4:-0.734513 5:-0.152825 6:-0.0504371 7:-0.449638 8:-0.503737 
-16384 1:1 2:0.5 3:0.378151 4:-0.734513 5:-0.273951 6:-0.279085 7:-0.506254 8:-0.652217 
-16384 2:-0.108108 3:-0.159664 4:-0.823009 5:-0.809456 6:-0.871553 7:-0.840685 8:-0.821624 
-16384 2:-0.0945946 3:-0.12605 4:-0.823009 5:-0.788914 6:-0.834566 7:-0.849901 8:-0.803687 
-16384 2:-0.0945946 3:-0.092437 4:-0.80531 5:-0.770498 6:-0.823134 7:-0.803818 8:-0.801694 
-16384 2:-0.0675676 3:-0.092437 4:-0.79646 5:-0.778998 6:-0.827169 7:-0.834101 8:-0.803687 
-16384 2:-0.0405405 3:-0.0420168 4:-0.80531 5:-0.743226 6:-0.787492 7:-0.776169 8:-0.793722 
-16384 2:0.108108 3:0.092437 4:-0.778761 5:-0.632017 6:-0.70343 7:-0.690586 8:-0.684106 
-16384 2:0.108108 3:0.0420168 4:-0.752212 5:-0.684434 6:-0.746469 7:-0.757735 8:-0.543597 
-16384 2:0.175676 3:0.109244 4:-0.743363 5:-0.458474 6:-0.465367 7:-0.632653 8:-0.643249 
-16384 1:1 2:0.189189 3:0.193277 4:-0.752212 5:-0.480432 6:-0.589106 7:-0.640553 8:-0.604385 
-16384 2:0.189189 3:0.12605 4:-0.80531 5:-0.625288 6:-0.67653 7:-0.743252 8:-0.681116 
-16384 2:0.216216 3:0.109244 4:-0.769912 5:-0.571454 6:-0.6846 7:-0.672153 8:-0.61435 
-16384 2:0.216216 3:0.159664 4:-0.769912 5:-0.544891 6:-0.537323 7:-0.662936 8:-0.604385 
-16384 1:-1 2:0.27027 3:0.294118 4:-0.734513 5:-0.330264 6:-0.509079 7:-0.371955 8:-0.454908 
-16384 1:-1 2:0.297297 3:0.310924 4:-0.690265 5:-0.189304 6:-0.260256 7:-0.358789 8:-0.447932 
-16384 1:-1 2:0.378378 3:0.344538 4:-0.769912 5:-0.381264 6:-0.448554 7:-0.457538 8:-0.554559 
